{"learner":{"attributes":{"scikit_learn":"{\"_estimator_type\": \"classifier\"}"},"feature_names":["Temperature","Humidity","PM2.5","NO2","SO2","CO","Proximity_to_Industrial_Areas","Population_Density"],"feature_types":["float","float","float","float","float","float","float","int"],"gradient_booster":{"model":{"cats":{"enc":[],"feature_segments":[],"sorted_idx":[]},"gbtree_model_param":{"num_parallel_tree":"1","num_trees":"1200"},"iteration_indptr":[0,4,8,12,16,20,24,28,32,36,40,44,48,52,56,60,64,68,72,76,80,84,88,92,96,100,104,108,112,116,120,124,128,132,136,140,144,148,152,156,160,164,168,172,176,180,184,188,192,196,200,204,208,212,216,220,224,228,232,236,240,244,248,252,256,260,264,268,272,276,280,284,288,292,296,300,304,308,312,316,320,324,328,332,336,340,344,348,352,356,360,364,368,372,376,380,384,388,392,396,400,404,408,412,416,420,424,428,432,436,440,444,448,452,456,460,464,468,472,476,480,484,488,492,496,500,504,508,512,516,520,524,528,532,536,540,544,548,552,556,560,564,568,572,576,580,584,588,592,596,600,604,608,612,616,620,624,628,632,636,640,644,648,652,656,660,664,668,672,676,680,684,688,692,696,700,704,708,712,716,720,724,728,732,736,740,744,748,752,756,760,764,768,772,776,780,784,788,792,796,800,804,808,812,816,820,824,828,832,836,840,844,848,852,856,860,864,868,872,876,880,884,888,892,896,900,904,908,912,916,920,924,928,932,936,940,944,948,952,956,960,964,968,972,976,980,984,988,992,996,1000,1004,1008,1012,1016,1020,1024,1028,1032,1036,1040,1044,1048,1052,1056,1060,1064,1068,1072,1076,1080,1084,1088,1092,1096,1100,1104,1108,1112,1116,1120,1124,1128,1132,1136,1140,1144,1148,1152,1156,1160,1164,1168,1172,1176,1180,1184,1188,1192,1196,1200],"tree_info":[0,1,2,3,0,1,2,3,0,1,2,3,0,1,2,3,0,1,2,3,0,1,2,3,0,1,2,3,0,1,2,3,0,1,2,3,0,1,2,3,0,1,2,3,0,1,2,3,0,1,2,3,0,1,2,3,0,1,2,3,0,1,2,3,0,1,2,3,0,1,2,3,0,1,2,3,0,1,2,3,0,1,2,3,0,1,2,3,0,1,2,3,0,1,2,3,0,1,2,3,0,1,2,3,0,1,2,3,0,1,2,3,0,1,2,3,0,1,2,3,0,1,2,3,0,1,2,3,0,1,2,3,0,1,2,3,0,1,2,3,0,1,2,3,0,1,2,3,0,1,2,3,0,1,2,3,0,1,2,3,0,1,2,3,0,1,2,3,0,1,2,3,0,1,2,3,0,1,2,3,0,1,2,3,0,1,2,3,0,1,2,3,0,1,2,3,0,1,2,3,0,1,2,3,0,1,2,3,0,1,2,3,0,1,2,3,0,1,2,3,0,1,2,3,0,1,2,3,0,1,2,3,0,1,2,3,0,1,2,3,0,1,2,3,0,1,2,3,0,1,2,3,0,1,2,3,0,1,2,3,0,1,2,3,0,1,2,3,0,1,2,3,0,1,2,3,0,1,2,3,0,1,2,3,0,1,2,3,0,1,2,3,0,1,2,3,0,1,2,3,0,1,2,3,0,1,2,3,0,1,2,3,0,1,2,3,0,1,2,3,0,1,2,3,0,1,2,3,0,1,2,3,0,1,2,3,0,1,2,3,0,1,2,3,0,1,2,3,0,1,2,3,0,1,2,3,0,1,2,3,0,1,2,3,0,1,2,3,0,1,2,3,0,1,2,3,0,1,2,3,0,1,2,3,0,1,2,3,0,1,2,3,0,1,2,3,0,1,2,3,0,1,2,3,0,1,2,3,0,1,2,3,0,1,2,3,0,1,2,3,0,1,2,3,0,1,2,3,0,1,2,3,0,1,2,3,0,1,2,3,0,1,2,3,0,1,2,3,0,1,2,3,0,1,2,3,0,1,2,3,0,1,2,3,0,1,2,3,0,1,2,3,0,1,2,3,0,1,2,3,0,1,2,3,0,1,2,3,0,1,2,3,0,1,2,3,0,1,2,3,0,1,2,3,0,1,2,3,0,1,2,3,0,1,2,3,0,1,2,3,0,1,2,3,0,1,2,3,0,1,2,3,0,1,2,3,0,1,2,3,0,1,2,3,0,1,2,3,0,1,2,3,0,1,2,3,0,1,2,3,0,1,2,3,0,1,2,3,0,1,2,3,0,1,2,3,0,1,2,3,0,1,2,3,0,1,2,3,0,1,2,3,0,1,2,3,0,1,2,3,0,1,2,3,0,1,2,3,0,1,2,3,0,1,2,3,0,1,2,3,0,1,2,3,0,1,2,3,0,1,2,3,0,1,2,3,0,1,2,3,0,1,2,3,0,1,2,3,0,1,2,3,0,1,2,3,0,1,2,3,0,1,2,3,0,1,2,3,0,1,2,3,0,1,2,3,0,1,2,3,0,1,2,3,0,1,2,3,0,1,2,3,0,1,2,3,0,1,2,3,0,1,2,3,0,1,2,3,0,1,2,3,0,1,2,3,0,1,2,3,0,1,2,3,0,1,2,3,0,1,2,3,0,1,2,3,0,1,2,3,0,1,2,3,0,1,2,3,0,1,2,3,0,1,2,3,0,1,2,3,0,1,2,3,0,1,2,3,0,1,2,3,0,1,2,3,0,1,2,3,0,1,2,3,0,1,2,3,0,1,2,3,0,1,2,3,0,1,2,3,0,1,2,3,0,1,2,3,0,1,2,3,0,1,2,3,0,1,2,3,0,1,2,3,0,1,2,3,0,1,2,3,0,1,2,3,0,1,2,3,0,1,2,3,0,1,2,3,0,1,2,3,0,1,2,3,0,1,2,3,0,1,2,3,0,1,2,3,0,1,2,3,0,1,2,3,0,1,2,3,0,1,2,3,0,1,2,3,0,1,2,3,0,1,2,3,0,1,2,3,0,1,2,3,0,1,2,3,0,1,2,3,0,1,2,3,0,1,2,3,0,1,2,3,0,1,2,3,0,1,2,3,0,1,2,3,0,1,2,3,0,1,2,3,0,1,2,3,0,1,2,3,0,1,2,3,0,1,2,3,0,1,2,3,0,1,2,3,0,1,2,3,0,1,2,3,0,1,2,3,0,1,2,3,0,1,2,3,0,1,2,3,0,1,2,3,0,1,2,3,0,1,2,3,0,1,2,3,0,1,2,3,0,1,2,3,0,1,2,3,0,1,2,3,0,1,2,3,0,1,2,3,0,1,2,3,0,1,2,3,0,1,2,3,0,1,2,3,0,1,2,3,0,1,2,3,0,1,2,3,0,1,2,3,0,1,2,3,0,1,2,3,0,1,2,3,0,1,2,3,0,1,2,3,0,1,2,3,0,1,2,3,0,1,2,3,0,1,2,3,0,1,2,3,0,1,2,3,0,1,2,3,0,1,2,3,0,1,2,3,0,1,2,3,0,1,2,3,0,1,2,3,0,1,2,3,0,1,2,3,0,1,2,3,0,1,2,3,0,1,2,3,0,1,2,3,0,1,2,3,0,1,2,3,0,1,2,3,0,1,2,3,0,1,2,3,0,1,2,3,0,1,2,3,0,1,2,3,0,1,2,3,0,1,2,3,0,1,2,3],"trees":[{"base_weights":[2.6148102E-1,1.6112602E0,-6.685304E-1,-6.759084E-3,1.7248783E-2,7.100724E-2,-6.9660985E-1,-6.65219E-3,1.2413077E0,-7.01913E-3,-5.49039E-1,1.4706206E-2,-3.8797392E-3,6.9831097E-3,-6.440179E-1,-2.112911E-1,-6.7632715E-3,-3.8797392E-3,6.0056604E-4],"categories":[],"categories_nodes":[],"categories_segments":[],"categories_sizes":[],"default_left":[0,0,0,0,0,0,0,0,0,0,0,0,0,0,0,0,0,0,0],"id":0,"left_children":[1,3,5,-1,-1,7,9,-1,11,-1,13,-1,-1,-1,15,17,-1,-1,-1],"loss_changes":[1.6473252E3,1.4026404E2,1.6187714E1,0E0,0E0,2.6101627E1,2.0062256E-1,0E0,4.933363E0,0E0,4.071148E0,0E0,0E0,0E0,2.6150227E-1,1.8937227E-1,0E0,0E0,0E0],"parents":[2147483647,0,0,1,1,2,2,5,5,6,6,8,8,10,10,14,14,15,15],"right_children":[2,4,6,-1,-1,8,10,-1,12,-1,14,-1,-1,-1,16,18,-1,-1,-1],"split_conditions":[1.21E0,9.7E0,1.27E0,-6.759084E-3,1.7248783E-2,9.9E0,1.07E1,-6.65219E-3,8E0,-7.01913E-3,1.31E0,1.4706206E-2,-3.8797392E-3,6.9831097E-3,2.46E1,2.34E1,-6.7632715E-3,-3.8797392E-3,6.0056604E-4],"split_indices":[5,6,5,0,0,6,6,0,4,0,5,0,0,0,0,0,0,0,0],"split_type":[0,0,0,0,0,0,0,0,0,0,0,0,0,0,0,0,0,0,0],"sum_hessian":[1.3104274E3,5.3427325E2,7.761541E2,2.5050476E1,5.092228E2,2.8335785E1,7.478183E2,1.7658533E1,1.0677252E1,7.1825055E2,2.9567776E1,9.445262E0,1.2319906E0,1.6426542E0,2.7925121E1,2.4639812E0,2.546114E1,1.2319906E0,1.2319906E0],"tree_param":{"num_deleted":"0","num_feature":"8","num_nodes":"19","size_leaf_vector":"1"}},{"base_weights":[-3.3882344E-1,2.1280036E0,-4.331685E-1,2.2693435E-2,1.0966322E0,-5.369966E-1,8.339326E-1,-3.9878604E-3,1.6751712E-2,-5.85934E-1,4.577503E-1,4.7758675E-1,1.8672667E0,-5.9763414E-1,5.584399E-1,2.0824505E-1,1.6471366E0,2.1514688E-1,2.0597545E-2,1.9755127E-2,7.4641055E-1,-6.030993E-1,1.2318713E-2,-2.2964296E-1,9.477294E-1,-1.1383914E-1,6.990069E-1,1.7846915E-3,1.8411465E-2,-5.874666E-3,4.7054625E-1,9.14604E-3,1.7846915E-3,-6.206803E-3,-4.0692184E-3,1.7846915E-3,-4.2521907E-3,-2.580682E-4,1.2779261E-2,-2.4068537E-3,7.4641053E-3,-4.6363315E-3,9.80252E-3,8.523736E-4,1.1805196E-2],"categories":[],"categories_nodes":[],"categories_segments":[],"categories_sizes":[],"default_left":[0,0,0,0,0,0,0,0,0,0,0,0,0,0,0,0,0,0,0,0,0,0,0,0,0,0,0,0,0,0,0,0,0,0,0,0,0,0,0,0,0,0,0,0,0],"id":1,"left_children":[1,3,5,-1,7,9,11,-1,-1,13,15,17,19,21,23,25,27,29,-1,-1,31,33,-1,35,37,39,41,-1,-1,-1,43,-1,-1,-1,-1,-1,-1,-1,-1,-1,-1,-1,-1,-1,-1],"loss_changes":[2.5045946E2,3.293579E0,1.3642114E2,0E0,6.4782524E0,4.6800385E1,2.8075497E1,0E0,0E0,1.2538086E1,1.3124293E1,2.4403427E1,9.311981E-1,9.769012E0,3.2063484E0,6.18995E0,1.8723907E0,1.1026377E1,0E0,0E0,1.5711677E-1,2.8540344E0,0E0,3.9723212E-1,2.1918259E0,2.8202724E0,5.508904E0,0E0,0E0,0E0,1.093422E1,0E0,0E0,0E0,0E0,0E0,0E0,0E0,0E0,0E0,0E0,0E0,0E0,0E0,0E0],"parents":[2147483647,0,0,1,1,2,2,4,4,5,5,6,6,9,9,10,10,11,11,12,12,13,13,14,14,15,15,16,16,17,17,20,20,21,21,23,23,24,24,25,25,26,26,30,30],"right_children":[2,4,6,-1,8,10,12,-1,-1,14,16,18,20,22,24,26,28,30,-1,-1,32,34,-1,36,38,40,42,-1,-1,-1,44,-1,-1,-1,-1,-1,-1,-1,-1,-1,-1,-1,-1,-1,-1],"split_conditions":[3.4E0,3.3E0,3.9E1,2.2693435E-2,3.43E1,4.09E1,4.15E1,-3.9878604E-3,1.6751712E-2,1.036E2,7.78E2,4.91E1,8.6E0,8.33E2,1.38E1,4.41E1,7.6E1,5.12E2,2.0597545E-2,1.9755127E-2,1.84E1,3.58E1,1.2318713E-2,2.67E1,3.14E1,1.036E2,7.57E1,1.7846915E-3,1.8411465E-2,-5.874666E-3,8.74E1,9.14604E-3,1.7846915E-3,-6.206803E-3,-4.0692184E-3,1.7846915E-3,-4.2521907E-3,-2.580682E-4,1.2779261E-2,-2.4068537E-3,7.4641053E-3,-4.6363315E-3,9.80252E-3,8.523736E-4,1.1805196E-2],"split_indices":[6,6,3,0,0,0,0,0,0,1,7,3,6,7,2,0,1,7,0,0,2,0,0,3,3,1,1,0,0,0,1,0,0,0,0,0,0,0,0,0,0,0,0,0,0],"split_type":[0,0,0,0,0,0,0,0,0,0,0,0,0,0,0,0,0,0,0,0,0,0,0,0,0,0,0,0,0,0,0,0,0,0,0,0,0,0,0,0,0,0,0,0,0],"sum_hessian":[1.071206E3,3.866563E1,1.0325404E3,3.294984E1,5.7157884E0,9.548729E2,7.766748E1,1.6811143E0,4.034674E0,9.104915E2,4.4381416E1,5.8839E1,1.882848E1,9.017497E2,8.741795E0,3.765696E1,6.7244573E0,5.1442097E1,7.396903E0,1.647492E1,2.35356E0,8.9973236E2,2.017337E0,3.0260057E0,5.7157884E0,2.3199377E1,1.4457582E1,1.0086685E0,5.7157884E0,1.2104023E1,3.9338074E1,1.3448914E0,1.0086685E0,8.23746E2,7.598637E1,1.0086685E0,2.017337E0,1.6811143E0,4.034674E0,2.0845818E1,2.35356E0,2.6897829E0,1.17678E1,2.6225384E1,1.3112692E1],"tree_param":{"num_deleted":"0","num_feature":"8","num_nodes":"45","size_leaf_vector":"1"}},{"base_weights":[9.132809E-2,-6.2558794E-1,5.4512787E-1,1.3472481E0,-6.753205E-3,1.3785233E0,-4.764961E-1,1.6192866E-2,1.3056618E-1,-6.5415706E-3,1.5307527E0,8.496269E-2,-6.1943144E-1,-3.6312384E-3,5.637472E-3,1.6920815E0,5.9993166E-1,-6.271552E-1,7.218552E-1,-2.9032892E-1,-6.537593E-1,1.7309922E0,-4.297752E-1,-5.142972E-1,1.5995145E0,1.0031168E-3,-6.5602725E-3,1.1779795E0,-6.108117E-3,9.567163E-1,-4.8619485E-1,-1.7584521E-4,-6.576913E-3,1.7652541E-2,-2.5871336E-3,-1.7584521E-4,-5.477344E-3,-6.487409E-3,1.5375243E-3,1.7116357E-2,1.3056617E-3,1.4364147E-2,-5.2547217E-3,1.0031168E-3,1.2609258E-2,3.7553897E-3,-5.60367E-3],"categories":[],"categories_nodes":[],"categories_segments":[],"categories_sizes":[],"default_left":[0,0,0,0,0,0,0,0,0,0,0,0,0,0,0,0,0,0,0,0,0,0,0,0,0,0,0,0,0,0,0,0,0,0,0,0,0,0,0,0,0,0,0,0,0,0,0],"id":2,"left_children":[1,3,5,7,-1,9,11,-1,13,-1,15,17,19,-1,-1,21,23,25,27,29,31,33,35,37,39,-1,-1,41,-1,43,45,-1,-1,-1,-1,-1,-1,-1,-1,-1,-1,-1,-1,-1,-1,-1,-1],"loss_changes":[4.0471155E2,4.822618E1,6.49158E2,3.8239555E0,0E0,1.3088196E2,2.757405E1,0E0,9.137737E-1,0E0,5.7669434E1,3.2412884E1,2.8996735E0,0E0,0E0,2.8197388E1,6.684188E1,7.7581406E-1,2.3613775E1,7.213718E0,6.0588837E-1,2.2730103E1,3.2046056E-1,2.685265E0,4.962723E0,0E0,0E0,1.3257919E1,0E0,9.38406E-1,1.7790751E0,0E0,0E0,0E0,0E0,0E0,0E0,0E0,0E0,0E0,0E0,0E0,0E0,0E0,0E0,0E0,0E0],"parents":[2147483647,0,0,1,1,2,2,3,3,5,5,6,6,8,8,10,10,11,11,12,12,15,15,16,16,17,17,18,18,19,19,20,20,21,21,22,22,23,23,24,24,27,27,29,29,30,30],"right_children":[2,4,6,8,-1,10,12,-1,14,-1,16,18,20,-1,-1,22,24,26,28,30,32,34,36,38,40,-1,-1,42,-1,44,46,-1,-1,-1,-1,-1,-1,-1,-1,-1,-1,-1,-1,-1,-1,-1,-1],"split_conditions":[1.16E0,9.4E0,1.79E0,3.63E1,-6.753205E-3,5E0,3.11E1,1.6192866E-2,1.12E1,-6.5415706E-3,1.01E1,5.3E0,1.88E0,-3.6312384E-3,5.637472E-3,3.84E1,1.28E0,2.27E1,2.04E0,2.51E1,1.81E1,2.08E1,3.42E1,2.98E1,3.54E1,1.0031168E-3,-6.5602725E-3,1.7E1,-6.108117E-3,2.16E1,3.15E1,-1.7584521E-4,-6.576913E-3,1.7652541E-2,-2.5871336E-3,-1.7584521E-4,-5.477344E-3,-6.487409E-3,1.5375243E-3,1.7116357E-2,1.3056617E-3,1.4364147E-2,-5.2547217E-3,1.0031168E-3,1.2609258E-2,3.7553897E-3,-5.60367E-3],"split_indices":[5,6,5,0,0,6,0,0,2,0,6,6,5,0,0,3,5,3,5,3,3,4,0,0,3,0,0,4,0,2,0,0,0,0,0,0,0,0,0,0,0,0,0,0,0,0,0],"split_type":[0,0,0,0,0,0,0,0,0,0,0,0,0,0,0,0,0,0,0,0,0,0,0,0,0,0,0,0,0,0,0,0,0,0,0,0,0,0,0,0,0,0,0,0,0,0,0],"sum_hessian":[1.2419308E3,4.8125784E2,7.60673E2,1.1192042E1,4.700658E2,4.1873676E2,3.419362E2,8.876448E0,2.3155951E0,2.8944939E1,3.8979184E2,6.946785E1,2.7246835E2,1.1577976E0,1.1577976E0,3.3151602E2,5.8275806E1,3.2804264E1,3.666359E1,2.6629343E1,2.45839E2,3.2572702E2,5.7889876E0,2.778714E1,3.0488668E1,1.1577976E0,3.1646465E1,2.7401207E1,9.262381E0,3.08746E0,2.3541883E1,1.54373E0,2.4429527E2,3.2032397E2,5.403055E0,1.54373E0,4.2452574E0,2.315595E1,4.6311903E0,2.8173073E1,2.3155951E0,2.3927814E1,3.4733925E0,1.1577976E0,1.9296625E0,1.54373E0,2.1998154E1],"tree_param":{"num_deleted":"0","num_feature":"8","num_nodes":"47","size_leaf_vector":"1"}},{"base_weights":[-9.35704E-2,-5.378325E-1,8.0502194E-1,1.9955214E-2,-5.9655124E-1,-6.367309E-3,9.5516914E-1,-6.096181E-1,1.3437377E0,1.0919739E0,-2.057608E-1,-6.240515E-1,7.03624E-1,4.3157465E-3,1.571491E-2,4.5274436E-1,1.2975513E0,3.5929736E-1,-5.8169794E-1,-6.2930685E-1,1.6297849E-1,-2.65253E-1,1.3437377E-2,1.07007455E-2,1.6305972E0,1.3911707E0,-9.81141E-3,7.074933E-1,-2.4085474E-1,1.3971962E-3,-6.2438347E-3,-6.3970736E-3,-3.1592604E-3,-3.8681768E-3,4.4086436E-3,1.3971962E-3,-4.4791237E-3,1.6149553E-2,-2.566028E-3,7.998129E-3,1.7196147E-2,1.4328691E-2,-5.319256E-3,3.7126157E-3,-5.629835E-3,1.0332031E-2,-1.8552715E-3,4.3157465E-3,-5.2300757E-3],"categories":[],"categories_nodes":[],"categories_segments":[],"categories_sizes":[],"default_left":[0,0,0,0,0,0,0,0,0,0,0,0,0,0,0,0,0,0,0,0,0,0,0,0,0,0,0,0,0,0,0,0,0,0,0,0,0,0,0,0,0,0,0,0,0,0,0,0,0],"id":3,"left_children":[1,3,5,-1,7,-1,9,11,13,15,17,19,21,-1,-1,23,25,27,29,31,33,35,-1,37,39,41,43,45,47,-1,-1,-1,-1,-1,-1,-1,-1,-1,-1,-1,-1,-1,-1,-1,-1,-1,-1,-1,-1],"loss_changes":[4.5761847E2,1.1527748E2,8.271283E1,0E0,1.9842896E1,0E0,5.4844086E1,1.4579376E1,4.2938232E-1,3.9862335E1,8.089041E0,3.1567993E0,5.6776943E0,0E0,0E0,3.978165E1,2.845462E1,3.396523E0,7.849498E-1,2.189392E0,1.0402226E0,3.768587E-1,0E0,2.4680164E1,1.667633E-1,1.815149E1,3.691627E0,3.1072793E0,1.44269E0,0E0,0E0,0E0,0E0,0E0,0E0,0E0,0E0,0E0,0E0,0E0,0E0,0E0,0E0,0E0,0E0,0E0,0E0,0E0,0E0],"parents":[2147483647,0,0,1,1,2,2,4,4,6,6,7,7,8,8,9,9,10,10,11,11,12,12,15,15,16,16,17,17,18,18,19,19,20,20,21,21,23,23,24,24,25,25,26,26,27,27,28,28],"right_children":[2,4,6,-1,8,-1,10,12,14,16,18,20,22,-1,-1,24,26,28,30,32,34,36,-1,38,40,42,44,46,48,-1,-1,-1,-1,-1,-1,-1,-1,-1,-1,-1,-1,-1,-1,-1,-1,-1,-1,-1,-1],"split_conditions":[1.69E0,5E0,3.3E0,1.9955214E-2,3.82E1,-6.367309E-3,2.62E0,9.33E1,6.9E0,1.81E0,3.67E1,7.05E2,2.72E1,4.3157465E-3,1.571491E-2,3.36E1,4.61E1,6.7E2,4.83E2,3.33E1,3.7E0,4.3E0,1.3437377E-2,5E0,4.63E2,8.57E2,4.91E1,9.33E1,2.77E0,1.3971962E-3,-6.2438347E-3,-6.3970736E-3,-3.1592604E-3,-3.8681768E-3,4.4086436E-3,1.3971962E-3,-4.4791237E-3,1.6149553E-2,-2.566028E-3,7.998129E-3,1.7196147E-2,1.4328691E-2,-5.319256E-3,3.7126157E-3,-5.629835E-3,1.0332031E-2,-1.8552715E-3,4.3157465E-3,-5.2300757E-3],"split_indices":[5,6,6,0,3,0,5,1,2,5,3,7,3,0,0,3,3,7,7,3,2,2,0,6,7,7,3,1,5,0,0,0,0,0,0,0,0,0,0,0,0,0,0,0,0,0,0,0,0],"split_type":[0,0,0,0,0,0,0,0,0,0,0,0,0,0,0,0,0,0,0,0,0,0,0,0,0,0,0,0,0,0,0,0,0,0,0,0,0,0,0,0,0,0,0,0,0,0,0,0,0],"sum_hessian":[1.144224E3,7.659442E2,3.7827972E2,1.660388E1,7.4934033E2,3.5373486E1,3.4290622E2,7.450089E2,4.331447E0,3.0681085E2,3.6095394E1,7.374289E2,7.5800323E0,1.4438157E0,2.8876314E0,7.543937E1,2.3137146E2,1.4438157E1,2.1657236E1,7.3273645E2,4.692401E0,3.2485852E0,4.331447E0,5.5586906E1,1.9852467E1,2.1585045E2,1.5521019E1,9.023849E0,5.414309E0,1.0828618E0,2.0574373E1,7.081916E2,2.4544867E1,1.4438157E0,3.2485852E0,1.0828618E0,2.1657236E0,7.2190785E0,4.8367825E1,2.8876314E0,1.6964834E1,2.11519E2,4.331447E0,9.384802E0,6.1362166E0,6.4971704E0,2.5266776E0,1.4438157E0,3.9704933E0],"tree_param":{"num_deleted":"0","num_feature":"8","num_nodes":"49","size_leaf_vector":"1"}},{"base_weights":[2.670943E-1,1.6044995E0,-6.5386236E-1,-6.689841E-3,1.6980717E-2,2.2050671E-1,-6.93315E-1,-6.655905E-3,1.3394798E0,-3.7738064E-1,-6.986429E-3,1.582253E-2,-4.3770787E-3,8.369453E-3,-6.4481944E-3],"categories":[],"categories_nodes":[],"categories_segments":[],"categories_sizes":[],"default_left":[0,0,0,0,0,0,0,0,0,0,0,0,0,0,0],"id":4,"left_children":[1,3,5,-1,-1,7,9,-1,11,13,-1,-1,-1,-1,-1],"loss_changes":[1.6157855E3,1.1492993E2,2.6959229E1,0E0,0E0,3.4908424E1,9.8831177E-1,0E0,7.3773136E0,5.2517376E0,0E0,0E0,0E0,0E0,0E0],"parents":[2147483647,0,0,1,1,2,2,5,5,6,6,8,8,9,9],"right_children":[2,4,6,-1,-1,8,10,-1,12,14,-1,-1,-1,-1,-1],"split_conditions":[1.19E0,9.4E0,1.27E0,-6.689841E-3,1.6980717E-2,9.9E0,1.3E0,-6.655905E-3,2.91E1,6.4E0,-6.986429E-3,1.582253E-2,-4.3770787E-3,8.369453E-3,-6.4481944E-3],"split_indices":[5,6,5,0,0,6,5,0,0,4,0,0,0,0,0],"split_type":[0,0,0,0,0,0,0,0,0,0,0,0,0,0,0],"sum_hessian":[1.3099902E3,5.339094E2,7.760808E2,2.086293E1,5.130465E2,3.3307846E1,7.4277295E2,1.8814285E1,1.449356E1,1.3509455E1,7.292635E2,1.2848125E1,1.6454344E0,2.0539331E0,1.1455522E1],"tree_param":{"num_deleted":"0","num_feature":"8","num_nodes":"15","size_leaf_vector":"1"}},{"base_weights":[-3.366889E-1,-5.5884004E-1,1.0139515E0,-5.9686404E-1,5.2349514E-1,3.9746645E-1,1.589294E0,-6.076314E-1,6.2386703E-1,-3.4424737E-1,1.0134736E0,1.1790496E-1,1.3964216E0,1.0528958E0,2.0343664E0,-6.1633974E-1,3.8699028E-1,-1.9502218E-1,1.044021E0,-4.8882344E-1,4.8469203E-3,-4.45479E-3,1.2211524E0,-5.0590463E-2,1.7279763E-2,6.6695744E-1,1.790398E0,2.940765E-1,1.6383604E0,-3.6446997E-3,2.1215072E-2,-6.196198E-1,4.2362228E-2,-1.755905E-1,1.1490345E0,-4.0030964E-3,1.761347E-3,-2.609837E-4,1.4948919E-2,-5.729889E-3,1.7434534E-3,3.462337E-1,1.4941045E0,-2.0894895E-1,1.2811749E0,-1.9287336E-1,1.1999539E0,1.7886732E-3,1.9485647E-2,-3.1027368E-1,7.1924967E-1,-3.1868678E-3,1.7507409E0,-6.294113E-3,-4.450139E-3,-4.455239E-3,5.698073E-3,4.8394683E-3,-4.9061957E-3,1.7586692E-3,1.4491675E-2,-3.65952E-3,6.4923214E-3,8.597884E-3,1.8803122E-2,-3.262549E-3,1.1051048E-2,6.268876E-4,1.6141504E-2,-3.982617E-3,1.7620131E-3,3.4718614E-3,1.5594291E-2,-5.1758843E-3,7.368851E-4,5.338772E-4,1.4603262E-2,3.4197508E-3,1.8601606E-2],"categories":[],"categories_nodes":[],"categories_segments":[],"categories_sizes":[],"default_left":[0,0,0,0,0,0,0,0,0,0,0,0,0,0,0,0,0,0,0,0,0,0,0,0,0,0,0,0,0,0,0,0,0,0,0,0,0,0,0,0,0,0,0,0,0,0,0,0,0,0,0,0,0,0,0,0,0,0,0,0,0,0,0,0,0,0,0,0,0,0,0,0,0,0,0,0,0,0,0],"id":5,"left_children":[1,3,5,7,9,11,13,15,17,19,21,23,25,27,29,31,33,35,37,39,-1,-1,41,43,-1,45,47,49,51,-1,-1,53,55,57,59,-1,-1,-1,-1,-1,-1,61,63,65,67,69,71,-1,-1,73,75,-1,77,-1,-1,-1,-1,-1,-1,-1,-1,-1,-1,-1,-1,-1,-1,-1,-1,-1,-1,-1,-1,-1,-1,-1,-1,-1,-1],"loss_changes":[3.286748E2,3.8986084E1,5.427849E1,1.2317688E1,1.4135527E1,2.1078613E1,1.6895905E1,8.04126E0,3.1056998E0,1.7288013E0,6.9000206E0,1.650765E1,3.5595512E0,1.6504505E1,9.6592865E0,1.9565125E0,3.8171682E0,3.5264087E-1,2.8046374E0,7.193179E-1,0E0,0E0,3.9319077E0,1.2028132E1,0E0,3.6201472E0,2.2376862E0,4.815151E0,5.2566185E0,0E0,0E0,1.2398987E0,1.6338787E0,1.4256861E0,8.299875E-1,0E0,0E0,0E0,0E0,0E0,0E0,1.4744655E0,1.78825E0,8.175403E0,2.3600988E0,3.4997427E-1,9.0034103E-1,0E0,0E0,6.8123347E-1,5.2473674E0,0E0,2.5019684E0,0E0,0E0,0E0,0E0,0E0,0E0,0E0,0E0,0E0,0E0,0E0,0E0,0E0,0E0,0E0,0E0,0E0,0E0,0E0,0E0,0E0,0E0,0E0,0E0,0E0,0E0],"parents":[2147483647,0,0,1,1,2,2,3,3,4,4,5,5,6,6,7,7,8,8,9,9,10,10,11,11,12,12,13,13,14,14,15,15,16,16,17,17,18,18,19,19,22,22,23,23,25,25,26,26,27,27,28,28,31,31,32,32,33,33,34,34,41,41,42,42,43,43,44,44,45,45,46,46,49,49,50,50,52,52],"right_children":[2,4,6,8,10,12,14,16,18,20,22,24,26,28,30,32,34,36,38,40,-1,-1,42,44,-1,46,48,50,52,-1,-1,54,56,58,60,-1,-1,-1,-1,-1,-1,62,64,66,68,70,72,-1,-1,74,76,-1,78,-1,-1,-1,-1,-1,-1,-1,-1,-1,-1,-1,-1,-1,-1,-1,-1,-1,-1,-1,-1,-1,-1,-1,-1,-1,-1],"split_conditions":[2.17E0,4.04E1,3.65E1,4.46E1,1.91E0,2.66E0,2.47E0,1.036E2,1.67E1,2.13E1,4.85E2,4.46E1,6.32E2,8.74E1,4.69E2,2.63E1,2.03E0,6.28E2,8E1,3.94E1,4.8469203E-3,-4.45479E-3,4.17E1,2.63E1,1.7279763E-2,1.91E1,2.5E1,1.48E1,4.35E2,-3.6446997E-3,2.1215072E-2,3.54E1,1.94E0,1.73E0,1.86E1,-4.0030964E-3,1.761347E-3,-2.609837E-4,1.4948919E-2,-5.729889E-3,1.7434534E-3,6.12E2,1.6E1,8.02E2,2.79E1,2.82E0,3.38E1,1.7886732E-3,1.9485647E-2,7.22E2,3.9E1,-3.1868678E-3,3.04E1,-6.294113E-3,-4.450139E-3,-4.455239E-3,5.698073E-3,4.8394683E-3,-4.9061957E-3,1.7586692E-3,1.4491675E-2,-3.65952E-3,6.4923214E-3,8.597884E-3,1.8803122E-2,-3.262549E-3,1.1051048E-2,6.268876E-4,1.6141504E-2,-3.982617E-3,1.7620131E-3,3.4718614E-3,1.5594291E-2,-5.1758843E-3,7.368851E-4,5.338772E-4,1.4603262E-2,3.4197508E-3,1.8601606E-2],"split_indices":[5,3,3,0,5,5,5,1,4,4,7,0,7,1,7,4,5,7,1,0,0,0,3,4,0,4,3,4,7,0,0,3,5,5,4,0,0,0,0,0,0,7,4,7,3,5,0,0,0,7,0,0,0,0,0,0,0,0,0,0,0,0,0,0,0,0,0,0,0,0,0,0,0,0,0,0,0,0,0],"split_type":[0,0,0,0,0,0,0,0,0,0,0,0,0,0,0,0,0,0,0,0,0,0,0,0,0,0,0,0,0,0,0,0,0,0,0,0,0,0,0,0,0,0,0,0,0,0,0,0,0,0,0,0,0,0,0,0,0,0,0,0,0,0,0,0,0,0,0,0,0,0,0,0,0,0,0,0,0,0,0],"sum_hessian":[1.092525E3,9.387133E2,1.5381177E2,9.0728754E2,3.1425789E1,7.5067276E1,7.87445E1,8.9985266E2,7.4348545E0,1.1448369E1,1.9977419E1,5.952656E1,1.5540714E1,3.7234917E1,4.150958E1,8.924195E2,7.433199E0,2.7028236E0,4.732031E0,1.00975485E1,1.3508203E0,2.3467019E0,1.7630718E1,5.4764034E1,4.762527E0,6.394295E0,9.146419E0,1.687089E1,2.0364027E1,1.3434763E0,4.0166103E1,8.880567E2,4.3627596E0,4.718981E0,2.714218E0,1.6897013E0,1.0131223E0,1.6820014E0,3.0500293E0,9.081022E0,1.0165262E0,4.7318273E0,1.28988905E1,4.9697655E1,5.06638E0,2.691116E0,3.703179E0,1.0079083E0,8.138511E0,7.0789547E0,9.791935E0,1.0061789E0,1.9357847E1,8.384341E2,4.9622616E1,2.3470542E0,2.0157056E0,1.3520869E0,3.366894E0,1.013607E0,1.7006109E0,1.35028E0,3.3815475E0,6.1024027E0,6.796488E0,4.6314835E1,3.3828197E0,1.3423759E0,3.7240043E0,1.678151E0,1.0129651E0,1.6810673E0,2.0221117E0,4.3709207E0,2.708034E0,5.7223806E0,4.0695543E0,1.6924973E0,1.766535E1],"tree_param":{"num_deleted":"0","num_feature":"8","num_nodes":"79","size_leaf_vector":"1"}},{"base_weights":[9.8365374E-2,-6.049726E-1,5.439026E-1,-6.355423E-1,1.1065747E0,1.3669302E0,-4.6007672E-1,-6.4597535E-1,1.0236759E-2,1.3508464E0,-1.9979246E-4,1.4824257E0,-1.0910391E-1,-2.3344409E-2,-6.6817263E-3,-6.5432477E-1,3.661459E-1,9.964328E-4,1.5733575E-2,5.241555E-1,1.57254E0,3.440167E-1,-6.297336E-3,7.1438324E-1,-4.9101678E-1,-6.6276246E-1,1.010494E-1,-4.0892023E-3,9.094278E-3,-1.0568388E-1,1.5240947E0,1.6540806E0,5.121485E-1,8.577977E-1,-5.7703424E-3,1.0592192E0,-5.1211566E-1,1.6434515E-1,-5.673326E-1,-6.6490197E-3,9.997977E-4,-3.2995204E-3,1.0186638E-2,-3.398671E-3,1.31794745E-2,-3.6152974E-3,1.7300121E-2,1.6707739E-2,-4.7375644E-3,1.0341475E-2,-2.6917139E-3,1.3068161E-2,-2.6973768E-3,1.3045547E-2,-5.4833493E-3,-6.0143643E-3,1.0234135E-3,9.546406E-3,-5.3641093E-3,5.665197E-3,-5.982733E-3],"categories":[],"categories_nodes":[],"categories_segments":[],"categories_sizes":[],"default_left":[0,0,0,0,0,0,0,0,0,0,0,0,0,0,0,0,0,0,0,0,0,0,0,0,0,0,0,0,0,0,0,0,0,0,0,0,0,0,0,0,0,0,0,0,0,0,0,0,0,0,0,0,0,0,0,0,0,0,0,0,0],"id":6,"left_children":[1,3,5,7,9,11,13,15,-1,17,-1,19,21,23,-1,25,27,-1,-1,29,31,33,-1,35,37,39,41,-1,-1,43,45,47,49,51,-1,53,55,57,59,-1,-1,-1,-1,-1,-1,-1,-1,-1,-1,-1,-1,-1,-1,-1,-1,-1,-1,-1,-1,-1,-1],"loss_changes":[3.8737036E2,2.5789154E1,6.25862E2,8.826355E0,2.4425783E0,7.108887E1,3.1030594E1,4.205841E0,0E0,1.85567E0,0E0,3.250232E1,7.5590577E0,3.874356E1,0E0,3.036209E0,2.2588863E0,0E0,0E0,2.1998032E1,2.961084E1,8.675812E0,0E0,1.8974785E1,3.5290985E0,8.185272E-1,2.71461E0,0E0,0E0,7.851999E0,5.853447E0,1.2394531E1,1.1127827E1,6.174505E0,0E0,1.4259933E1,6.234629E-1,4.9096675E0,2.5054836E0,0E0,0E0,0E0,0E0,0E0,0E0,0E0,0E0,0E0,0E0,0E0,0E0,0E0,0E0,0E0,0E0,0E0,0E0,0E0,0E0,0E0,0E0],"parents":[2147483647,0,0,1,1,2,2,3,3,4,4,5,5,6,6,7,7,9,9,11,11,12,12,13,13,15,15,16,16,19,19,20,20,21,21,23,23,24,24,25,25,26,26,29,29,30,30,31,31,32,32,33,33,35,35,36,36,37,37,38,38],"right_children":[2,4,6,8,10,12,14,16,-1,18,-1,20,22,24,-1,26,28,-1,-1,30,32,34,-1,36,38,40,42,-1,-1,44,46,48,50,52,-1,54,56,58,60,-1,-1,-1,-1,-1,-1,-1,-1,-1,-1,-1,-1,-1,-1,-1,-1,-1,-1,-1,-1,-1,-1],"split_conditions":[1.17E0,1.06E1,1.79E0,2.93E1,6.32E2,3.63E1,2.02E0,5.34E1,1.0236759E-2,1.05E0,-1.9979246E-4,1.24E0,3.84E1,3.17E1,-6.6817263E-3,3.24E1,9.4E-1,9.964328E-4,1.5733575E-2,7.3E0,1.77E1,1.5E1,-6.297336E-3,1.7E1,2.51E1,6.09E2,4.69E2,-4.0892023E-3,9.094278E-3,3.25E1,2.83E2,7.38E2,3.22E1,3.23E1,-5.7703424E-3,7.09E2,1.96E0,1.11E1,3.52E2,-6.6490197E-3,9.997977E-4,-3.2995204E-3,1.0186638E-2,-3.398671E-3,1.31794745E-2,-3.6152974E-3,1.7300121E-2,1.6707739E-2,-4.7375644E-3,1.0341475E-2,-2.6917139E-3,1.3068161E-2,-2.6973768E-3,1.3045547E-2,-5.4833493E-3,-6.0143643E-3,1.0234135E-3,9.546406E-3,-5.3641093E-3,5.665197E-3,-5.982733E-3],"split_indices":[5,4,5,3,7,3,5,2,0,5,0,5,3,0,0,0,5,0,0,4,4,4,0,4,3,7,7,0,0,2,7,7,0,0,0,7,5,4,7,0,0,0,0,0,0,0,0,0,0,0,0,0,0,0,0,0,0,0,0,0,0],"split_type":[0,0,0,0,0,0,0,0,0,0,0,0,0,0,0,0,0,0,0,0,0,0,0,0,0,0,0,0,0,0,0,0,0,0,0,0,0,0,0,0,0,0,0,0,0,0,0,0,0,0,0,0,0,0,0,0,0,0,0,0,0],"sum_hessian":[1.2341204E3,4.784568E2,7.556636E2,4.7067874E2,7.778048E0,4.1505463E2,3.4060895E2,4.6834448E2,2.3342412E0,6.2284346E0,1.5496132E0,3.8493054E2,3.0124071E1,1.1027865E2,2.303303E2,4.6486313E2,3.4813461E0,1.159011E0,5.0694237E0,3.367279E1,3.5125775E2,1.6287645E1,1.3836426E1,4.2581352E1,6.7697296E1,4.5984912E2,5.0140104E0,1.5365549E0,1.9447911E0,2.12084E1,1.2464389E1,3.2565604E2,2.5601723E1,1.049949E1,5.7881546E0,3.3343155E1,9.238199E0,6.940688E0,6.0756603E1,4.5869077E2,1.1583738E0,3.8473449E0,1.1666653E0,1.8866228E1,2.3421721E0,1.1527498E0,1.131164E1,3.233342E2,2.3218346E0,1.5153857E1,1.0447865E1,7.395413E0,3.104077E0,2.9091818E1,4.2513366E0,8.084223E0,1.1539762E0,3.0916734E0,3.8490145E0,1.1540827E0,5.9602524E1],"tree_param":{"num_deleted":"0","num_feature":"8","num_nodes":"61","size_leaf_vector":"1"}},{"base_weights":[-9.188939E-2,9.484E-1,-3.1950814E-1,-5.1573384E-1,1.3777984E0,-4.9371645E-1,5.5863637E-1,-6.378459E-3,2.2776593E-1,1.5300162E0,-1.6122097E-1,-5.526903E-1,4.1068995E-1,-3.9961705E-1,6.4938235E-1,1.3443765E-2,-3.6526436E-1,1.6890508E0,1.697419E-1,6.662882E-1,-4.3775755E-1,-5.668014E-1,1.3786919E0,-3.2013318E-1,6.7905086E-1,-5.2943987E-1,6.1539398E-3,-2.5079685E-1,7.39718E-1,-5.133993E-3,1.3738141E-3,1.7730837E0,4.9843913E-1,1.3471005E-2,-6.7378595E-2,1.778875E-1,1.09071145E-2,-5.845783E-3,2.4762047E-2,-5.847272E-1,7.976601E-1,1.6385796E-2,1.3872024E-3,-5.089562E-1,3.8365465E-1,5.793686E-2,9.033669E-1,-6.0039703E-3,1.3854516E-3,2.2504795E-1,-5.7811826E-3,8.07239E-1,-5.6179166E-3,1.8061033E-2,4.334868E-3,1.1481153E-2,-5.148452E-3,9.9601075E-3,-2.9421335E-3,6.1167395E-3,-3.4210365E-3,6.121897E-3,-4.2191213E-3,-4.6104137E-3,-6.499285E-3,-3.4037966E-3,9.724816E-3,-5.829557E-3,-1.3118817E-3,-3.3869308E-3,8.40543E-3,5.712723E-3,-2.8219863E-3,9.6942615E-3,-3.4133403E-3,-2.9479554E-3,9.933588E-3,4.121922E-3,9.728844E-3],"categories":[],"categories_nodes":[],"categories_segments":[],"categories_sizes":[],"default_left":[0,0,0,0,0,0,0,0,0,0,0,0,0,0,0,0,0,0,0,0,0,0,0,0,0,0,0,0,0,0,0,0,0,0,0,0,0,0,0,0,0,0,0,0,0,0,0,0,0,0,0,0,0,0,0,0,0,0,0,0,0,0,0,0,0,0,0,0,0,0,0,0,0,0,0,0,0,0,0],"id":7,"left_children":[1,3,5,7,9,11,13,-1,15,17,19,21,23,25,27,-1,29,31,33,35,37,39,41,43,45,47,-1,49,51,-1,-1,53,55,-1,57,59,-1,-1,61,63,65,-1,-1,67,69,71,73,-1,-1,75,-1,77,-1,-1,-1,-1,-1,-1,-1,-1,-1,-1,-1,-1,-1,-1,-1,-1,-1,-1,-1,-1,-1,-1,-1,-1,-1,-1,-1],"loss_changes":[2.7581036E2,1.3218948E2,1.4643039E2,4.517023E0,3.8192352E1,4.277649E1,1.4053162E1,0E0,5.4770994E0,3.1620789E1,3.834801E0,2.1204132E1,9.907679E0,2.215583E0,1.1999733E1,0E0,4.9526244E-1,1.2317261E1,4.7113357E0,6.9206727E-1,8.435273E-1,1.867923E1,1.6180916E0,2.0490775E0,5.0273495E0,7.1132874E-1,0E0,2.3101609E0,1.2078781E1,0E0,0E0,4.6512146E0,7.2331524E0,0E0,3.8457742E0,9.2709726E-1,0E0,0E0,1.2818732E0,5.6321106E0,2.3362145E0,0E0,0E0,2.4300885E-1,1.4467766E0,2.0368261E0,2.52767E0,0E0,0E0,2.8586035E0,0E0,7.855438E0,0E0,0E0,0E0,0E0,0E0,0E0,0E0,0E0,0E0,0E0,0E0,0E0,0E0,0E0,0E0,0E0,0E0,0E0,0E0,0E0,0E0,0E0,0E0,0E0,0E0,0E0,0E0],"parents":[2147483647,0,0,1,1,2,2,3,3,4,4,5,5,6,6,8,8,9,9,10,10,11,11,12,12,13,13,14,14,16,16,17,17,18,18,19,19,20,20,21,21,22,22,23,23,24,24,25,25,27,27,28,28,31,31,32,32,34,34,35,35,38,38,39,39,40,40,43,43,44,44,45,45,46,46,49,49,51,51],"right_children":[2,4,6,8,10,12,14,-1,16,18,20,22,24,26,28,-1,30,32,34,36,38,40,42,44,46,48,-1,50,52,-1,-1,54,56,-1,58,60,-1,-1,62,64,66,-1,-1,68,70,72,74,-1,-1,76,-1,78,-1,-1,-1,-1,-1,-1,-1,-1,-1,-1,-1,-1,-1,-1,-1,-1,-1,-1,-1,-1,-1,-1,-1,-1,-1,-1,-1],"split_conditions":[5E0,3.4E0,3.16E1,3.3E0,4.46E1,3.55E1,5.96E1,-6.378459E-3,3.43E1,4.5E1,3.24E1,9.64E1,6.48E1,3.67E1,2.64E1,1.3443765E-2,3.55E1,1.014E2,3.16E1,4.2E0,5.86E1,7.05E2,6.84E2,8.4E0,2.29E1,4.14E1,6.1539398E-3,1.1E1,4.91E1,-5.133993E-3,1.3738141E-3,8.24E2,3.44E1,1.3471005E-2,6.1E0,1.5E1,1.09071145E-2,-5.845783E-3,3.87E1,9.8E0,2.15E1,1.6385796E-2,1.3872024E-3,4.01E1,3.66E1,1.96E1,9.01E1,-6.0039703E-3,1.3854516E-3,3.65E1,-5.7811826E-3,3.41E1,-5.6179166E-3,1.8061033E-2,4.334868E-3,1.1481153E-2,-5.148452E-3,9.9601075E-3,-2.9421335E-3,6.1167395E-3,-3.4210365E-3,6.121897E-3,-4.2191213E-3,-4.6104137E-3,-6.499285E-3,-3.4037966E-3,9.724816E-3,-5.829557E-3,-1.3118817E-3,-3.3869308E-3,8.40543E-3,5.712723E-3,-2.8219863E-3,9.6942615E-3,-3.4133403E-3,-2.9479554E-3,9.933588E-3,4.121922E-3,9.728844E-3],"split_indices":[6,6,3,6,0,0,1,0,0,3,3,1,1,0,0,0,2,1,0,6,2,7,7,6,3,2,0,2,3,0,0,7,3,0,2,2,0,0,3,6,3,0,0,0,0,3,2,0,0,3,0,3,0,0,0,0,0,0,0,0,0,0,0,0,0,0,0,0,0,0,0,0,0,0,0,0,0,0,0],"split_type":[0,0,0,0,0,0,0,0,0,0,0,0,0,0,0,0,0,0,0,0,0,0,0,0,0,0,0,0,0,0,0,0,0,0,0,0,0,0,0,0,0,0,0,0,0,0,0,0,0,0,0,0,0,0,0,0,0,0,0,0,0,0,0,0,0,0,0,0,0,0,0,0,0,0,0,0,0,0,0],"sum_hessian":[1.1625123E3,2.0812927E2,9.5438306E2,4.715211E1,1.6097716E2,7.967581E2,1.5762494E2,4.062241E1,6.5297003E0,1.4649394E2,1.4483227E1,7.483492E2,4.8408905E1,1.3341249E1,1.4428369E2,1.8255085E0,4.704192E0,1.3094319E2,1.5550749E1,3.2746744E0,1.1208552E1,7.436227E2,4.7265377E0,1.2949853E1,3.5459053E1,1.2252509E1,1.0887408E0,1.2996774E1,1.3128693E2,3.6168687E0,1.0873232E0,1.21853584E2,9.0896015E0,1.82217E0,1.3728579E1,2.1824129E0,1.0922616E0,8.307535E0,2.901017E0,7.3454395E2,9.078727E0,3.6417847E0,1.0847528E0,1.0428712E1,2.5211415E0,9.742127E0,2.5716927E1,1.1167424E1,1.0850852E0,5.424028E0,7.5727453E0,1.25172844E2,6.114075E0,1.1858243E2,3.2711613E0,5.457448E0,3.6321535E0,1.8174694E0,1.191111E1,1.0937063E0,1.0887066E0,1.09302E0,1.807997E0,2.5634067E2,4.7820328E2,1.082825E0,7.995902E0,8.2663E0,2.1624117E0,1.0770323E0,1.4441091E0,3.6117299E0,6.1303973E0,2.4630865E1,1.0860612E0,3.6027164E0,1.8213115E0,3.801041E1,8.716243E1],"tree_param":{"num_deleted":"0","num_feature":"8","num_nodes":"79","size_leaf_vector":"1"}},{"base_weights":[2.7888978E-1,-6.981197E-3,1.4993677E0,1.5848535E0,-4.3828824E-1,1.6133863E0,-4.9671885E-1,6.408869E-1,-5.827477E-1,1.6286814E0,3.7474174E-2,5.9796806E-4,-6.01445E-3,9.328319E-3,5.9045496E-4,-1.2632835E-1,-6.6329995E-3,1.6424148E0,4.3743145E-1,5.020533E-1,-4.9756244E-3,-4.9646846E-3,4.981047E-3,1.6476821E-2,-5.741899E-4,9.174202E-3,-2.6302328E-3,1.0497951E-2,-3.8381491E-3],"categories":[],"categories_nodes":[],"categories_segments":[],"categories_sizes":[],"default_left":[0,0,0,0,0,0,0,0,0,0,0,0,0,0,0,0,0,0,0,0,0,0,0,0,0,0,0,0,0],"id":8,"left_children":[1,-1,3,5,7,9,11,13,15,17,19,-1,-1,-1,-1,21,-1,23,25,27,-1,-1,-1,-1,-1,-1,-1,-1,-1],"loss_changes":[1.5706941E3,0E0,9.7690186E1,3.4123657E1,4.3529315E0,1.3285156E1,5.226784E-1,5.3771865E-1,7.6315165E-1,8.252441E0,1.8271697E0,0E0,0E0,0E0,0E0,1.3315123E0,0E0,4.9450684E0,2.800761E0,2.2925563E0,0E0,0E0,0E0,0E0,0E0,0E0,0E0,0E0,0E0],"parents":[2147483647,0,0,2,2,3,3,4,4,5,5,6,6,7,7,8,8,9,9,10,10,15,15,17,17,18,18,19,19],"right_children":[2,-1,4,6,8,10,12,14,16,18,20,-1,-1,-1,-1,22,-1,24,26,28,-1,-1,-1,-1,-1,-1,-1,-1,-1],"split_conditions":[1E1,-6.981197E-3,1E1,2.9E1,1.76E1,8.19E1,1.07E1,2.58E1,2.23E1,3.25E1,8.46E1,5.9796806E-4,-6.01445E-3,9.328319E-3,5.9045496E-4,2.07E1,-6.6329995E-3,6.15E2,4.12E2,5.7E0,-4.9756244E-3,-4.9646846E-3,4.981047E-3,1.6476821E-2,-5.741899E-4,9.174202E-3,-2.6302328E-3,1.0497951E-2,-3.8381491E-3],"split_indices":[6,0,4,3,3,1,6,0,3,0,1,0,0,0,0,3,0,7,7,4,0,0,0,0,0,0,0,0,0],"split_type":[0,0,0,0,0,0,0,0,0,0,0,0,0,0,0,0,0,0,0,0,0,0,0,0,0,0,0,0,0],"sum_hessian":[1.315356E3,7.307825E2,5.845735E2,5.600473E2,2.4526175E1,5.526962E2,7.351048E0,2.4898047E0,2.2036371E1,5.473504E2,5.345845E0,1.2321916E0,6.1188564E0,1.2562349E0,1.23357E0,3.6909957E0,1.8345375E1,5.4073773E2,6.61267E0,2.8943186E0,2.4515269E0,2.4460185E0,1.2449772E0,5.390979E2,1.6398228E0,3.7400444E0,2.8726258E0,1.6741357E0,1.2201829E0],"tree_param":{"num_deleted":"0","num_feature":"8","num_nodes":"29","size_leaf_vector":"1"}},{"base_weights":[-3.2664183E-1,2.0566587E0,-4.2208874E-1,2.1846741E-2,1.1305314E0,-5.354713E-1,7.65948E-1,-3.966112E-3,1.6687827E-2,-5.7576615E-1,7.291413E-1,-7.1982184E-4,1.203469E0,-5.87483E-1,1.6332751E-2,-5.0801556E-3,9.41806E-1,-2.1385373E-1,7.863412E-1,-4.2360753E-1,1.425279E0,-5.979923E-1,3.780771E-1,4.433664E-1,1.4541919E0,-5.3573567E-1,2.3912038E-1,-3.6409418E-3,1.0979162E0,1.7731361E-3,-5.40675E-3,-3.4252275E-2,1.5290843E0,-3.7191254E-3,-6.209451E-3,-2.2393793E-3,1.0604825E-2,-3.4850403E-3,8.5930405E-3,3.4341975E-3,1.599397E-2,-5.9293257E-3,5.772825E-4,-4.766943E-3,5.275669E-3,1.7167125E-3,1.2497617E-2,-4.458083E-3,6.630818E-3,9.27964E-3,1.6948396E-2],"categories":[],"categories_nodes":[],"categories_segments":[],"categories_sizes":[],"default_left":[0,0,0,0,0,0,0,0,0,0,0,0,0,0,0,0,0,0,0,0,0,0,0,0,0,0,0,0,0,0,0,0,0,0,0,0,0,0,0,0,0,0,0,0,0,0,0,0,0,0,0],"id":9,"left_children":[1,3,5,-1,7,9,11,-1,-1,13,15,17,19,21,-1,-1,23,25,27,29,31,33,35,37,39,41,43,-1,45,-1,-1,47,49,-1,-1,-1,-1,-1,-1,-1,-1,-1,-1,-1,-1,-1,-1,-1,-1,-1,-1],"loss_changes":[2.4639813E2,2.4778442E0,1.4031535E2,0E0,6.531185E0,4.876419E1,3.0491268E1,0E0,0E0,2.4771606E1,8.302318E0,5.8759694E0,2.1490128E1,9.519714E0,0E0,0E0,5.925436E0,4.1466665E0,3.075355E0,6.38525E-1,7.803314E0,4.4725037E0,4.540301E0,5.0683813E0,1.426014E0,5.9161854E-1,2.758215E0,0E0,6.465874E-1,0E0,0E0,1.5512071E0,3.188385E0,0E0,0E0,0E0,0E0,0E0,0E0,0E0,0E0,0E0,0E0,0E0,0E0,0E0,0E0,0E0,0E0,0E0,0E0],"parents":[2147483647,0,0,1,1,2,2,4,4,5,5,6,6,9,9,10,10,11,11,12,12,13,13,16,16,17,17,18,18,19,19,20,20,21,21,22,22,23,23,24,24,25,25,26,26,28,28,31,31,32,32],"right_children":[2,4,6,-1,8,10,12,-1,-1,14,16,18,20,22,-1,-1,24,26,28,30,32,34,36,38,40,42,44,-1,46,-1,-1,48,50,-1,-1,-1,-1,-1,-1,-1,-1,-1,-1,-1,-1,-1,-1,-1,-1,-1,-1],"split_conditions":[3.4E0,3.3E0,3.97E1,2.1846741E-2,3.43E1,2.34E1,1.45E1,-3.966112E-3,1.6687827E-2,8.33E2,2.97E1,9.43E1,4.71E2,1.036E2,1.6332751E-2,-5.0801556E-3,8.46E1,1.18E1,4.92E2,1.65E1,6.81E1,4.9E0,1.77E1,2.51E1,5.29E2,4.84E1,4.67E2,-3.6409418E-3,4.13E1,1.7731361E-3,-5.40675E-3,3.64E1,5.8E2,-3.7191254E-3,-6.209451E-3,-2.2393793E-3,1.0604825E-2,-3.4850403E-3,8.5930405E-3,3.4341975E-3,1.599397E-2,-5.9293257E-3,5.772825E-4,-4.766943E-3,5.275669E-3,1.7167125E-3,1.2497617E-2,-4.458083E-3,6.630818E-3,9.27964E-3,1.6948396E-2],"split_indices":[6,6,0,0,0,4,4,0,0,7,0,1,7,1,0,0,1,4,7,4,1,6,2,4,7,0,7,0,0,0,0,2,7,0,0,0,0,0,0,0,0,0,0,0,0,0,0,0,0,0,0],"split_type":[0,0,0,0,0,0,0,0,0,0,0,0,0,0,0,0,0,0,0,0,0,0,0,0,0,0,0,0,0,0,0,0,0,0,0,0,0,0,0,0,0,0,0,0,0,0,0,0,0,0,0],"sum_hessian":[1.078354E3,4.0732006E1,1.0376221E3,3.4591587E1,6.1404176E0,9.4772345E2,8.9898544E1,1.6687992E0,4.471618E0,9.189862E2,2.8737268E1,3.3025806E1,5.6872738E1,9.1486774E2,4.118456E0,4.0115647E0,2.4725704E1,2.6561354E1,6.464452E0,6.7138457E0,5.0158894E1,9.05394E2,9.473775E0,1.3478939E1,1.1246766E1,1.5420727E1,1.1140627E1,1.3417432E0,5.1227083E0,1.0107776E0,5.703068E0,3.3750331E0,4.678386E1,8.503378E1,8.2036017E2,5.390309E0,4.083466E0,4.6976266E0,8.781312E0,1.6892922E0,9.557474E0,1.4065971E1,1.354755E0,3.012391E0,8.128236E0,1.0215998E0,4.1011086E0,2.3492422E0,1.0257909E0,1.15382395E1,3.524562E1],"tree_param":{"num_deleted":"0","num_feature":"8","num_nodes":"51","size_leaf_vector":"1"}},{"base_weights":[9.465161E-2,-6.1298215E-1,5.460849E-1,1.3923357E0,-6.719822E-3,1.323616E0,-4.9599415E-1,1.555459E0,2.324397E-3,-6.516331E-3,1.4560986E0,-1.3194293E-1,-6.535709E-1,1.698806E-2,9.593068E-4,1.6274414E0,4.7750786E-1,-6.5966365E-3,2.9951733E-1,1.0090588E-3,-6.578459E-1,1.6760991E0,-1.3181905E-1,-5.088294E-1,1.5911512E0,6.3234496E-1,-4.6576998E-1,-1.3563581E-4,-6.6215447E-3,1.700342E-2,-5.2579106E-3,1.00939805E-2,-5.944882E-3,-6.235059E-3,1.1396682E-2,1.7458003E-2,4.0541842E-4,8.563521E-3,-5.7539726E-3,1.0234464E-3,-5.1204553E-3],"categories":[],"categories_nodes":[],"categories_segments":[],"categories_sizes":[],"default_left":[0,0,0,0,0,0,0,0,0,0,0,0,0,0,0,0,0,0,0,0,0,0,0,0,0,0,0,0,0,0,0,0,0,0,0,0,0,0,0,0,0],"id":10,"left_children":[1,3,5,7,-1,9,11,13,-1,-1,15,17,19,-1,-1,21,23,-1,25,-1,27,29,31,33,35,37,39,-1,-1,-1,-1,-1,-1,-1,-1,-1,-1,-1,-1,-1,-1],"loss_changes":[4.012111E2,5.8818115E1,6.218493E2,2.3456364E0,0E0,1.15917786E2,1.8748749E1,2.4247074E0,0E0,0E0,6.83103E1,2.3066143E1,8.04657E-1,0E0,0E0,3.0200623E1,6.980098E1,0E0,1.4544472E1,0E0,6.2319946E-1,1.9089966E1,6.066463E0,7.1505814E0,7.0616226E0,1.1155789E1,5.1333284E-1,0E0,0E0,0E0,0E0,0E0,0E0,0E0,0E0,0E0,0E0,0E0,0E0,0E0,0E0],"parents":[2147483647,0,0,1,1,2,2,3,3,5,5,6,6,7,7,10,10,11,11,12,12,15,15,16,16,18,18,20,20,21,21,22,22,23,23,24,24,25,25,26,26],"right_children":[2,4,6,8,-1,10,12,14,-1,-1,16,18,20,-1,-1,22,24,-1,26,-1,28,30,32,34,36,38,40,-1,-1,-1,-1,-1,-1,-1,-1,-1,-1,-1,-1,-1,-1],"split_conditions":[1.16E0,9.4E0,1.81E0,1.34E1,-6.719822E-3,5E0,2.02E0,8.74E1,2.324397E-3,-6.516331E-3,1.01E1,5E0,1.76E1,1.698806E-2,9.593068E-4,9.36E1,1.3E0,-6.5966365E-3,3.44E1,1.0090588E-3,9E-1,2.19E1,2.72E1,8.6E0,3.37E1,1.7E1,6.08E1,-1.3563581E-4,-6.6215447E-3,1.700342E-2,-5.2579106E-3,1.00939805E-2,-5.944882E-3,-6.235059E-3,1.1396682E-2,1.7458003E-2,4.0541842E-4,8.563521E-3,-5.7539726E-3,1.0234464E-3,-5.1204553E-3],"split_indices":[5,6,5,4,0,6,5,1,0,0,6,6,3,0,0,1,5,0,3,0,4,4,3,4,3,4,1,0,0,0,0,0,0,0,0,0,0,0,0,0,0],"split_type":[0,0,0,0,0,0,0,0,0,0,0,0,0,0,0,0,0,0,0,0,0,0,0,0,0,0,0,0,0,0,0,0,0,0,0,0,0,0,0,0,0],"sum_hessian":[1.2538976E3,4.8822845E2,7.656691E2,1.3308107E1,4.7492035E2,4.3833905E2,3.2733008E2,1.136828E1,1.9398264E0,2.7305714E1,4.1103333E2,9.9437035E1,2.2789307E2,1.0202322E1,1.1659589E0,3.4922415E2,6.1809174E1,4.4491E1,5.494603E1,1.1566522E0,2.267364E2,3.3987128E2,9.35289E0,3.306611E1,2.8743065E1,3.84135E1,1.6532526E1,1.5337723E0,2.2520264E2,3.363953E2,3.475977E0,2.3571274E0,6.9957623E0,3.149683E1,1.56928E0,2.6021902E1,2.7211611E0,3.264887E1,5.764634E0,1.1539631E0,1.5378564E1],"tree_param":{"num_deleted":"0","num_feature":"8","num_nodes":"41","size_leaf_vector":"1"}},{"base_weights":[-9.4010204E-2,-5.391671E-1,7.89627E-1,-5.8509153E-1,1.0934045E0,9.403009E-1,-3.2295385E-1,-6.056174E-1,7.4227667E-1,-3.3495262E-2,1.2971164E0,-4.7362873E-1,1.000497E0,1.3115595E-1,-5.6768465E-1,-6.201627E-1,1.050446E0,-2.2842431E-1,1.0779117E0,-4.481657E-3,6.0854354E-3,5.455819E-1,1.6387745E0,-6.0600955E-3,6.153874E-3,1.0842471E0,-1.8341932E-1,5.488895E-1,-4.436575E-1,1.4210854E-3,-5.981635E-1,-6.280627E-1,1.8930362E-1,-3.8602906E-3,1.50630735E-2,-4.1981707E-3,1.3753377E-3,-3.4032434E-3,1.3141956E-2,-2.967918E-1,1.4799302E-2,6.3412916E-3,1.756814E-2,1.1279659E0,-5.7734707E-3,9.395473E-1,-3.7245062E-1,9.568041E-1,-2.6889604E-1,-5.577446E-3,1.4055584E-3,1.3331879E-3,-6.3074445E-3,-6.3210917E-3,4.9618944E-3,-3.6400123E-3,1.118546E-2,-4.700363E-3,1.3955797E-3,6.1308662E-3,1.2852385E-2,1.3755438E-3,1.2383973E-2,-4.8460576E-4,-5.9745363E-3,1.313227E-2,-6.7625113E-4,1.3605045E-3,-4.5040133E-3],"categories":[],"categories_nodes":[],"categories_segments":[],"categories_sizes":[],"default_left":[0,0,0,0,0,0,0,0,0,0,0,0,0,0,0,0,0,0,0,0,0,0,0,0,0,0,0,0,0,0,0,0,0,0,0,0,0,0,0,0,0,0,0,0,0,0,0,0,0,0,0,0,0,0,0,0,0,0,0,0,0,0,0,0,0,0,0,0,0],"id":11,"left_children":[1,3,5,7,9,11,13,15,17,19,21,23,25,27,29,31,33,35,37,-1,-1,39,41,-1,-1,43,45,47,49,-1,51,53,55,-1,-1,-1,-1,-1,-1,57,-1,-1,-1,59,-1,61,63,65,67,-1,-1,-1,-1,-1,-1,-1,-1,-1,-1,-1,-1,-1,-1,-1,-1,-1,-1,-1,-1],"loss_changes":[4.5716827E2,5.8576004E1,6.558095E1,2.0944885E1,4.9770126E0,2.9685303E1,5.318834E0,1.8509003E1,4.1247725E0,1.4082305E0,3.785797E0,2.491235E0,3.2871216E1,4.406661E0,7.524357E-1,4.8223877E0,5.0512652E0,3.2976618E-1,3.4702024E0,0E0,0E0,6.102458E0,3.126564E-1,0E0,0E0,2.3017181E1,5.152695E0,3.7558858E0,6.0160565E-1,0E0,7.9366016E-1,3.6284485E0,4.457325E0,0E0,0E0,0E0,0E0,0E0,0E0,4.146095E-1,0E0,0E0,0E0,2.3531982E1,0E0,6.789868E-1,1.4349568E0,2.7238998E0,3.7519452E-1,0E0,0E0,0E0,0E0,0E0,0E0,0E0,0E0,0E0,0E0,0E0,0E0,0E0,0E0,0E0,0E0,0E0,0E0,0E0,0E0],"parents":[2147483647,0,0,1,1,2,2,3,3,4,4,5,5,6,6,7,7,8,8,9,9,10,10,11,11,12,12,13,13,14,14,15,15,16,16,17,17,18,18,21,21,22,22,25,25,26,26,27,27,28,28,30,30,31,31,32,32,39,39,43,43,45,45,46,46,47,47,48,48],"right_children":[2,4,6,8,10,12,14,16,18,20,22,24,26,28,30,32,34,36,38,-1,-1,40,42,-1,-1,44,46,48,50,-1,52,54,56,-1,-1,-1,-1,-1,-1,58,-1,-1,-1,60,-1,62,64,66,68,-1,-1,-1,-1,-1,-1,-1,-1,-1,-1,-1,-1,-1,-1,-1,-1,-1,-1,-1,-1],"split_conditions":[1.69E0,3.65E1,2.62E0,1.93E1,2.84E1,3.74E2,3.67E1,9.33E1,2.86E1,1.14E1,3.75E1,3.63E1,4.61E1,6.7E2,6.52E1,6.98E2,1.31E0,2.7E1,2.36E1,-4.481657E-3,6.0854354E-3,6.33E2,1.37E0,-6.0600955E-3,6.153874E-3,8.57E2,1.91E0,3.01E0,2.25E1,1.4210854E-3,4.83E2,4.19E1,3.07E1,-3.8602906E-3,1.50630735E-2,-4.1981707E-3,1.3753377E-3,-3.4032434E-3,1.3141956E-2,1.25E1,1.4799302E-2,6.3412916E-3,1.756814E-2,1.83E0,-5.7734707E-3,3.33E1,4.91E1,9.3E1,3.09E0,-5.577446E-3,1.4055584E-3,1.3331879E-3,-6.3074445E-3,-6.3210917E-3,4.9618944E-3,-3.6400123E-3,1.118546E-2,-4.700363E-3,1.3955797E-3,6.1308662E-3,1.2852385E-2,1.3755438E-3,1.2383973E-2,-4.8460576E-4,-5.9745363E-3,1.313227E-2,-6.7625113E-4,1.3605045E-3,-4.5040133E-3],"split_indices":[5,3,5,4,0,7,3,1,0,4,3,0,3,7,1,7,5,3,3,0,0,7,5,0,0,7,5,5,4,0,7,0,3,0,0,0,0,0,0,4,0,0,0,5,0,0,3,1,5,0,0,0,0,0,0,0,0,0,0,0,0,0,0,0,0,0,0,0,0],"split_type":[0,0,0,0,0,0,0,0,0,0,0,0,0,0,0,0,0,0,0,0,0,0,0,0,0,0,0,0,0,0,0,0,0,0,0,0,0,0,0,0,0,0,0,0,0,0,0,0,0,0,0,0,0,0,0,0,0,0,0,0,0,0,0,0,0,0,0,0,0],"sum_hessian":[1.1601393E3,7.717423E2,3.883969E2,7.5125116E2,2.0491154E1,3.4220752E2,4.61894E1,7.403465E2,1.0904654E1,3.2650447E0,1.722611E1,1.3693629E1,3.285139E2,1.6337837E1,2.9851562E1,7.345207E2,5.825836E0,2.8837872E0,8.020866E0,2.1672552E0,1.0977894E0,6.1953225E0,1.1030787E1,1.2604903E1,1.0887265E0,3.068888E2,2.1625092E1,9.487845E0,6.8499923E0,1.0782679E0,2.8773296E1,7.276433E2,6.877348E0,1.4403387E0,4.385497E0,1.7968686E0,1.0869186E0,1.0825866E0,6.938279E0,3.6168551E0,2.5784674E0,1.8297527E0,9.201035E0,2.9933405E2,7.554733E0,2.5436802E0,1.9081411E1,6.2168584E0,3.2709866E0,5.768757E0,1.0812352E0,1.0950978E0,2.7678198E1,7.254699E2,2.1733851E0,4.6919007E0,2.1854475E0,2.5336971E0,1.083158E0,7.11854E1,2.2814865E2,1.0869701E0,1.4567101E0,8.318573E0,1.0762838E1,4.40303E0,1.8138286E0,1.08987E0,2.1811166E0],"tree_param":{"num_deleted":"0","num_feature":"8","num_nodes":"69","size_leaf_vector":"1"}},{"base_weights":[2.8494394E-1,1.551253E0,-6.619687E-1,-6.6775726E-3,1.64432E-2,9.122365E-2,-6.8939716E-1,-6.5674973E-3,1.2465053E0,3.1911798E-3,-6.921277E-1,1.3922877E-2,5.2809785E-4,-6.9484096E-3,-4.2772758E-1,5.0194976E-3,-6.175963E-3],"categories":[],"categories_nodes":[],"categories_segments":[],"categories_sizes":[],"default_left":[0,0,0,0,0,0,0,0,0,0,0,0,0,0,0,0,0],"id":12,"left_children":[1,3,5,-1,-1,7,9,-1,11,-1,13,-1,-1,-1,15,-1,-1],"loss_changes":[1.575387E3,1.171698E2,1.5596802E1,0E0,0E0,2.4411934E1,2.2191162E0,0E0,1.8537731E0,0E0,2.2216797E-1,0E0,0E0,0E0,2.0672736E0,0E0,0E0],"parents":[2147483647,0,0,1,1,2,2,5,5,6,6,8,8,10,10,14,14],"right_children":[2,4,6,-1,-1,8,10,-1,12,-1,14,-1,-1,-1,16,-1,-1],"split_conditions":[1.21E0,9.7E0,1.27E0,-6.6775726E-3,1.64432E-2,1.02E1,2.73E2,-6.5674973E-3,2.68E1,3.1911798E-3,1.28E1,1.3922877E-2,5.2809785E-4,-6.9484096E-3,2.69E1,5.0194976E-3,-6.175963E-3],"split_indices":[5,6,5,0,0,6,7,0,3,0,6,0,0,0,0,0,0],"split_type":[0,0,0,0,0,0,0,0,0,0,0,0,0,0,0,0,0],"sum_hessian":[1.3119689E3,5.610444E2,7.509245E2,2.2334948E1,5.387094E2,2.6303263E1,7.246212E2,1.6228098E1,1.0075166E1,1.6437699E0,7.229775E2,8.830371E0,1.244795E0,7.140222E2,8.955273E0,1.2400072E0,7.7152658E0],"tree_param":{"num_deleted":"0","num_feature":"8","num_nodes":"17","size_leaf_vector":"1"}},{"base_weights":[-3.4521696E-1,-5.408555E-1,1.1733066E0,2.003165E-2,-5.6824076E-1,5.574729E-1,1.6268635E0,-5.8664525E-1,1.1183839E0,1.7224013E0,6.9512345E-2,8.5187666E-2,1.7189014E0,-5.969585E-1,6.649755E-1,-3.9885677E-3,1.449306E0,1.7452546E-3,1.8162841E0,-3.327905E-1,1.0522377E0,-4.6195025E-3,8.993065E-3,8.6893916E-1,1.8894831E0,-6.052759E-1,3.857533E-1,-7.857804E-2,1.30595E0,5.524571E-1,1.6369779E-2,6.9852904E-3,1.9089695E-2,-5.5596554E-1,2.3203652E-1,-2.3421343E-1,1.539172E0,1.668221E-2,1.8066664E-1,7.6415724E-1,1.9736554E-2,-6.2610772E-3,-3.852339E-3,-4.635018E-3,8.632107E-3,-4.259948E-3,3.3988305E-3,1.7308418E-3,1.5929747E-2,6.6420995E-3,1.6844098E-3,-5.9682075E-3,-3.0890808E-3,-2.8888201E-3,6.6939383E-3,1.7504711E-3,-4.2851646E-3,7.3221135E-3,1.7322619E-2,-5.168547E-3,1.1292883E-2,1.4094893E-2,7.7355106E-4],"categories":[],"categories_nodes":[],"categories_segments":[],"categories_sizes":[],"default_left":[0,0,0,0,0,0,0,0,0,0,0,0,0,0,0,0,0,0,0,0,0,0,0,0,0,0,0,0,0,0,0,0,0,0,0,0,0,0,0,0,0,0,0,0,0,0,0,0,0,0,0,0,0,0,0,0,0,0,0,0,0,0,0],"id":13,"left_children":[1,3,5,-1,7,9,11,13,15,17,19,21,23,25,27,-1,29,-1,31,33,35,-1,-1,37,39,41,43,45,47,49,-1,-1,-1,51,53,55,57,-1,59,61,-1,-1,-1,-1,-1,-1,-1,-1,-1,-1,-1,-1,-1,-1,-1,-1,-1,-1,-1,-1,-1,-1,-1],"loss_changes":[3.2208698E2,6.7966095E1,3.3674774E1,0E0,3.0138885E1,3.0594107E1,9.896317E0,1.2533264E1,5.898346E0,1.9948997E0,1.5817506E1,2.660195E0,8.034271E0,7.8597717E0,3.9901776E0,0E0,5.961189E-1,0E0,2.0944214E-1,3.7239401E0,7.629506E0,0E0,0E0,6.8537683E0,3.6760101E0,4.001587E0,3.8229513E0,8.309134E-1,1.1671362E0,1.9099176E-2,0E0,0E0,0E0,2.4939537E-2,2.1942723E0,3.9740068E-1,6.383324E-2,0E0,5.9499264E0,2.3023636E0,0E0,0E0,0E0,0E0,0E0,0E0,0E0,0E0,0E0,0E0,0E0,0E0,0E0,0E0,0E0,0E0,0E0,0E0,0E0,0E0,0E0,0E0,0E0],"parents":[2147483647,0,0,1,1,2,2,4,4,5,5,6,6,7,7,8,8,9,9,10,10,11,11,12,12,13,13,14,14,16,16,18,18,19,19,20,20,23,23,24,24,25,25,26,26,27,27,28,28,29,29,33,33,34,34,35,35,36,36,38,38,39,39],"right_children":[2,4,6,-1,8,10,12,14,16,18,20,22,24,26,28,-1,30,-1,32,34,36,-1,-1,38,40,42,44,46,48,50,-1,-1,-1,52,54,56,58,-1,60,62,-1,-1,-1,-1,-1,-1,-1,-1,-1,-1,-1,-1,-1,-1,-1,-1,-1,-1,-1,-1,-1,-1,-1],"split_conditions":[2.26E0,3.3E0,2.45E0,2.003165E-2,4.61E1,3.8E0,2.64E1,4.46E1,1.85E0,6E0,3.97E1,2.66E0,1.15E1,2.63E1,3.44E1,-3.9885677E-3,1.47E1,1.7452546E-3,3.5E0,3.82E1,1.42E1,-4.6195025E-3,8.993065E-3,3.6E0,2.97E1,1.96E0,1.94E0,4.71E1,1.86E0,8.8E0,1.6369779E-2,6.9852904E-3,1.9089695E-2,7.06E1,1.56E1,2.44E1,2.32E0,1.668221E-2,2.66E0,3.6E0,1.9736554E-2,-6.2610772E-3,-3.852339E-3,-4.635018E-3,8.632107E-3,-4.259948E-3,3.3988305E-3,1.7308418E-3,1.5929747E-2,6.6420995E-3,1.6844098E-3,-5.9682075E-3,-3.0890808E-3,-2.8888201E-3,6.6939383E-3,1.7504711E-3,-4.2851646E-3,7.3221135E-3,1.7322619E-2,-5.168547E-3,1.1292883E-2,1.4094893E-2,7.7355106E-4],"split_indices":[5,6,5,0,3,6,3,0,5,4,0,5,4,4,3,0,4,0,2,3,4,0,0,6,0,5,5,0,5,4,0,0,0,2,4,3,5,0,5,6,0,0,0,0,0,0,0,0,0,0,0,0,0,0,0,0,0,0,0,0,0,0,0],"split_type":[0,0,0,0,0,0,0,0,0,0,0,0,0,0,0,0,0,0,0,0,0,0,0,0,0,0,0,0,0,0,0,0,0,0,0,0,0,0,0,0,0,0,0,0,0,0,0,0,0,0,0,0,0,0,0,0,0,0,0,0,0,0,0],"sum_hessian":[1.0810333E3,9.5822455E2,1.2280878E2,9.436632E0,9.487879E2,5.3031883E1,6.977689E1,9.391916E2,9.5963E0,1.4909064E1,3.812282E1,4.039476E0,6.573741E1,9.320347E2,7.1568785E0,1.6815042E0,7.9147954E0,1.0160519E0,1.3893012E1,2.7518715E1,1.0604104E1,2.6745741E0,1.3649018E0,1.2006456E1,5.3730957E1,9.245933E2,7.4414163E0,3.7195148E0,3.4373634E0,2.0520709E0,5.862725E0,1.7174703E0,1.2175542E1,1.973621E1,7.782505E0,3.054172E0,7.5499325E0,4.89647E0,7.109987E0,4.440685E0,4.929027E1,8.429447E2,8.164861E1,2.6885362E0,4.7528796E0,2.0224354E0,1.6970795E0,1.0188936E0,2.41847E0,1.0243368E0,1.027734E0,1.572079E1,4.015421E0,3.7068772E0,4.075628E0,1.0151223E0,2.0390496E0,2.3829954E0,5.1669374E0,4.359557E0,2.7504296E0,1.7469597E0,2.6937253E0],"tree_param":{"num_deleted":"0","num_feature":"8","num_nodes":"63","size_leaf_vector":"1"}},{"base_weights":[1.2236456E-1,-5.8957916E-1,5.735169E-1,1.4642998E0,-6.661484E-1,1.3525878E0,-4.46301E-1,1.6057372E0,-2.0810944E-4,-6.6822946E-1,-1.6531764E-1,-6.50143E-3,1.4823483E0,1.3590193E-1,-5.9935397E-1,5.59723E-3,1.7089093E-2,-6.703134E-3,-2.9861528E-1,-3.604904E-3,1.0740228E-3,1.6114235E0,6.3116753E-1,7.5560236E-1,-5.64685E-1,-2.9916596E-1,-6.4793533E-1,1.0040146E-3,-4.6921554E-3,1.6657082E0,-5.4612704E-2,-4.176965E-1,1.4844459E0,-4.7202945E-1,1.0613261E0,5.073142E-2,-6.193493E-1,8.2211035E-1,-5.0542367E-1,-2.1923822E-1,-6.5204776E-3,1.702125E-2,7.5576594E-4,-5.8432417E-3,5.8207074E-3,-5.9931227E-3,5.784029E-3,1.6502531E-2,1.3684541E-3,1.0444979E-3,-5.796386E-3,1.5792647E-2,5.940697E-3,-4.0705246E-3,5.637744E-3,-2.6108634E-3,-6.490386E-3,-1.7067419E-4,1.0895721E-2,2.397846E-3,-5.5825375E-3,1.0371575E-3,-4.072187E-3],"categories":[],"categories_nodes":[],"categories_segments":[],"categories_sizes":[],"default_left":[0,0,0,0,0,0,0,0,0,0,0,0,0,0,0,0,0,0,0,0,0,0,0,0,0,0,0,0,0,0,0,0,0,0,0,0,0,0,0,0,0,0,0,0,0,0,0,0,0,0,0,0,0,0,0,0,0,0,0,0,0,0,0],"id":14,"left_children":[1,3,5,7,9,11,13,15,-1,17,19,-1,21,23,25,-1,-1,-1,27,-1,-1,29,31,33,35,37,39,-1,-1,41,43,45,47,49,51,53,55,57,59,61,-1,-1,-1,-1,-1,-1,-1,-1,-1,-1,-1,-1,-1,-1,-1,-1,-1,-1,-1,-1,-1,-1,-1],"loss_changes":[4.0723776E2,7.83309E1,6.1710205E2,3.8124657E0,3.8449097E-1,1.15346436E2,3.0093231E1,8.1762695E-1,0E0,1.6384888E-1,2.1403995E-1,0E0,4.443103E1,3.121904E1,3.6981812E0,0E0,0E0,0E0,3.5023952E-1,0E0,0E0,3.2518616E1,5.084009E1,1.4786552E1,1.1705894E0,9.442551E0,2.604828E-1,0E0,0E0,1.9981018E1,4.4824605E0,5.0415955E0,6.7368927E0,5.742626E-1,6.511261E0,1.0953604E0,1.6214466E-1,1.465188E0,1.4561625E0,2.657019E-1,0E0,0E0,0E0,0E0,0E0,0E0,0E0,0E0,0E0,0E0,0E0,0E0,0E0,0E0,0E0,0E0,0E0,0E0,0E0,0E0,0E0,0E0,0E0],"parents":[2147483647,0,0,1,1,2,2,3,3,4,4,5,5,6,6,7,7,9,9,10,10,12,12,13,13,14,14,18,18,21,21,22,22,23,23,24,24,25,25,26,26,29,29,30,30,31,31,32,32,33,33,34,34,35,35,36,36,37,37,38,38,39,39],"right_children":[2,4,6,8,10,12,14,16,-1,18,20,-1,22,24,26,-1,-1,-1,28,-1,-1,30,32,34,36,38,40,-1,-1,42,44,46,48,50,52,54,56,58,60,62,-1,-1,-1,-1,-1,-1,-1,-1,-1,-1,-1,-1,-1,-1,-1,-1,-1,-1,-1,-1,-1,-1,-1],"split_conditions":[1.17E0,9.4E0,1.79E0,3.76E1,2.89E1,5E0,3.11E1,5.1E0,-2.0810944E-4,3.34E1,2.67E1,-6.50143E-3,1.01E1,2.02E0,1.91E0,5.59723E-3,1.7089093E-2,-6.703134E-3,3.37E1,-3.604904E-3,1.0740228E-3,3.75E1,1.3E0,5.1E0,2.04E0,2.51E1,6E-1,1.0040146E-3,-4.6921554E-3,9.36E1,7.1E0,2.98E1,3.41E1,2.66E1,2.85E1,2.03E0,4E0,5.5E0,1.1E0,1.99E0,-6.5204776E-3,1.702125E-2,7.5576594E-4,-5.8432417E-3,5.8207074E-3,-5.9931227E-3,5.784029E-3,1.6502531E-2,1.3684541E-3,1.0444979E-3,-5.796386E-3,1.5792647E-2,5.940697E-3,-4.0705246E-3,5.637744E-3,-2.6108634E-3,-6.490386E-3,-1.7067419E-4,1.0895721E-2,2.397846E-3,-5.5825375E-3,1.0371575E-3,-4.072187E-3],"split_indices":[5,6,5,0,3,6,0,6,0,0,0,0,6,5,5,0,0,0,0,0,0,3,5,6,5,3,2,0,0,1,6,0,3,0,3,5,2,6,2,5,0,0,0,0,0,0,0,0,0,0,0,0,0,0,0,0,0,0,0,0,0,0,0],"split_type":[0,0,0,0,0,0,0,0,0,0,0,0,0,0,0,0,0,0,0,0,0,0,0,0,0,0,0,0,0,0,0,0,0,0,0,0,0,0,0,0,0,0,0,0,0,0,0,0,0,0,0,0,0,0,0,0,0,0,0,0,0,0,0],"sum_hessian":[1.2658302E3,4.908828E2,7.749474E2,1.6991167E1,4.7389163E2,4.3914468E2,3.358027E2,1.5439529E1,1.5516375E0,4.715978E2,2.2938318E0,2.6477602E1,4.1266708E2,6.992498E1,2.6587772E2,1.962974E0,1.3476555E1,4.6814478E2,3.4530494E0,1.1494157E0,1.1444162E0,3.5755362E2,5.511347E1,3.7062775E1,3.2862206E1,3.803214E1,2.2784558E2,1.1574268E0,2.2956226E0,3.462712E2,1.1282395E1,2.495224E1,3.0161228E1,7.2811975E0,2.9781576E1,2.6867254E0,3.017548E1,5.4451113E0,3.258703E1,2.680949E0,2.2516464E2,3.3844968E2,7.8215356E0,6.2034507E0,5.078944E0,2.1441261E1,3.5109792E0,2.6656818E1,3.5044112E0,1.1499727E0,6.1312246E0,1.299603E1,1.6785545E1,1.5290018E0,1.1577235E0,3.0587938E0,2.7116688E1,1.542285E0,3.9028263E0,1.9229901E0,3.0664038E1,1.1512843E0,1.5296648E0],"tree_param":{"num_deleted":"0","num_feature":"8","num_nodes":"63","size_leaf_vector":"1"}},{"base_weights":[-1.3379923E-1,-5.549659E-1,7.344524E-1,1.8092304E-2,-5.990424E-1,9.3408227E-1,-2.898181E-1,-6.1194354E-1,1.60642E-2,-6.117529E-3,1.012028E0,1.0087707E0,-4.1600454E-1,-6.271014E-1,-4.465612E-2,2.899164E-1,1.2032592E0,1.3948864E-2,-3.4223492E-3,-7.959747E-2,-5.61562E-1,-6.311205E-1,8.34032E-3,-2.0502174E-1,1.2277288E-2,1.7844992E-2,-5.7426196E-2,1.2582128E0,-5.690992E-3,7.990268E-1,-2.4736944E-1,-5.8480316E-1,1.4060648E-3,-6.4156046E-3,-3.7351572E-3,-3.810273E-3,8.0706E-3,-2.5816762E-3,1.3255735E-2,1.3167379E-2,1.2174024E-3,1.3770845E-3,1.0744113E-2,1.5216125E-3,-4.253401E-3,-3.1904625E-3,-6.3225203E-3],"categories":[],"categories_nodes":[],"categories_segments":[],"categories_sizes":[],"default_left":[0,0,0,0,0,0,0,0,0,0,0,0,0,0,0,0,0,0,0,0,0,0,0,0,0,0,0,0,0,0,0,0,0,0,0,0,0,0,0,0,0,0,0,0,0,0,0],"id":15,"left_children":[1,3,5,-1,7,9,11,13,-1,-1,15,17,19,21,23,25,27,-1,-1,29,31,33,-1,35,-1,-1,37,39,-1,41,43,45,-1,-1,-1,-1,-1,-1,-1,-1,-1,-1,-1,-1,-1,-1,-1],"loss_changes":[4.204837E2,8.1749756E1,7.7082245E1,0E0,2.2626923E1,3.852771E1,1.0585093E1,6.481262E0,0E0,0E0,4.106317E1,3.4957323E0,2.7586126E0,4.8555603E0,4.4911895E0,3.3382572E1,2.377826E1,0E0,0E0,2.9180787E0,7.3164177E-1,1.7391052E0,0E0,3.7469487E0,0E0,0E0,1.5052733E1,1.5135834E1,0E0,4.3397117E-1,1.2208582E0,2.864523E-1,0E0,0E0,0E0,0E0,0E0,0E0,0E0,0E0,0E0,0E0,0E0,0E0,0E0,0E0,0E0],"parents":[2147483647,0,0,1,1,2,2,4,4,5,5,6,6,7,7,10,10,11,11,12,12,13,13,14,14,15,15,16,16,19,19,20,20,21,21,23,23,26,26,27,27,29,29,30,30,31,31],"right_children":[2,4,6,-1,8,10,12,14,-1,-1,16,18,20,22,24,26,28,-1,-1,30,32,34,-1,36,-1,-1,38,40,-1,42,44,46,-1,-1,-1,-1,-1,-1,-1,-1,-1,-1,-1,-1,-1,-1,-1],"split_conditions":[1.69E0,5E0,2.52E0,1.8092304E-2,3.84E1,3.3E0,2.88E1,3.66E1,1.60642E-2,-6.117529E-3,1.79E0,2.77E0,3.67E1,2.25E1,3.44E1,5E0,4.91E1,1.3948864E-2,-3.4223492E-3,1.15E1,1.02E1,1.49E1,8.34032E-3,4.3E1,1.2277288E-2,1.7844992E-2,3.52E1,4.46E1,-5.690992E-3,6E0,3.38E1,2.62E0,1.4060648E-3,-6.4156046E-3,-3.7351572E-3,-3.810273E-3,8.0706E-3,-2.5816762E-3,1.3255735E-2,1.3167379E-2,1.2174024E-3,1.3770845E-3,1.0744113E-2,1.5216125E-3,-4.253401E-3,-3.1904625E-3,-6.3225203E-3],"split_indices":[5,6,5,0,3,6,3,0,0,0,5,5,3,4,3,6,3,0,0,4,6,4,0,0,0,0,3,0,0,4,0,5,0,0,0,0,0,0,0,0,0,0,0,0,0,0,0],"split_type":[0,0,0,0,0,0,0,0,0,0,0,0,0,0,0,0,0,0,0,0,0,0,0,0,0,0,0,0,0,0,0,0,0,0,0,0,0,0,0,0,0,0,0,0,0,0,0],"sum_hessian":[1.1477574E3,7.731049E2,3.746526E2,1.34165E1,7.596884E2,3.1361688E2,6.1035725E1,7.5598865E2,3.699727E0,1.4725686E1,2.9889117E2,4.786226E0,5.6249496E1,7.362117E2,1.9776989E1,6.310716E1,2.3578403E2,3.697115E0,1.089111E0,1.7454996E1,3.87945E1,7.3475867E2,1.4530008E0,1.8308355E1,1.4686339E0,1.1120237E1,5.198692E1,2.2897455E2,6.8094807E0,2.1953485E0,1.5259648E1,3.7713367E1,1.0811324E0,7.0470844E2,3.005025E1,1.6127272E1,2.1810837E0,4.6107742E1,5.879178E0,2.1760963E2,1.136491E1,1.0864255E0,1.1089228E0,4.7473116E0,1.0512337E1,6.8834977E0,3.082987E1],"tree_param":{"num_deleted":"0","num_feature":"8","num_nodes":"47","size_leaf_vector":"1"}},{"base_weights":[2.693821E-1,1.5082258E0,-6.7068034E-1,-6.6993767E-3,1.6131716E0,5.197458E-2,-6.8897605E-1,1.6149201E0,4.824708E-3,-6.388173E-3,1.0881487E0,6.5685663E-4,-6.903269E-1,1.6166337E-2,4.8873993E-3,1.3895031E-2,-6.2060053E-4,-5.5024034E-4,-6.9167465E-3],"categories":[],"categories_nodes":[],"categories_segments":[],"categories_sizes":[],"default_left":[0,0,0,0,0,0,0,0,0,0,0,0,0,0,0,0,0,0,0],"id":16,"left_children":[1,3,5,-1,7,9,11,13,-1,-1,15,-1,17,-1,-1,-1,-1,-1,-1],"loss_changes":[1.5374506E3,1.3126257E2,9.962372E0,0E0,2.956543E-1,1.4630363E1,7.9193115E-1,2.5646973E-1,0E0,0E0,2.9137554E0,0E0,5.878906E-1,0E0,0E0,0E0,0E0,0E0,0E0],"parents":[2147483647,0,0,1,1,2,2,4,4,5,5,6,6,7,7,10,10,12,12],"right_children":[2,4,6,-1,8,10,12,14,-1,-1,16,-1,18,-1,-1,-1,-1,-1,-1],"split_conditions":[1.23E0,9.9E0,1.27E0,-6.6993767E-3,8.33E1,9.8E0,1.43E1,2.92E1,4.824708E-3,-6.388173E-3,2.89E1,6.5685663E-4,2.67E2,1.6166337E-2,4.8873993E-3,1.3895031E-2,-6.2060053E-4,-5.5024034E-4,-6.9167465E-3],"split_indices":[5,6,5,0,1,6,3,3,0,0,0,0,7,0,0,0,0,0,0],"split_type":[0,0,0,0,0,0,0,0,0,0,0,0,0,0,0,0,0,0,0],"sum_hessian":[1.3182955E3,5.685018E2,7.4979376E2,2.5884369E1,5.426174E2,1.8468582E1,7.313252E2,5.41352E2,1.2654083E0,1.131118E1,7.1574025E0,1.2216648E0,7.301035E2,5.400947E2,1.2572687E0,5.5066237E0,1.6507789E0,1.6340942E0,7.284694E2],"tree_param":{"num_deleted":"0","num_feature":"8","num_nodes":"19","size_leaf_vector":"1"}},{"base_weights":[-3.1852317E-1,-5.2033937E-1,1.3108685E0,2.0156885E-2,-5.5798393E-1,8.877131E-1,1.8703063E0,-5.883069E-1,3.12513E-1,3.3308342E-1,1.5856096E0,1.6562883E-3,1.9029564E0,-6.116349E-1,-2.143303E-2,-5.5290055E-3,1.483754E0,1.8606786E-2,4.712234E-3,6.3989565E-2,1.7347957E0,5.419851E-1,1.9516991E-2,-6.149991E-1,2.596866E-1,-3.26239E-1,5.5485314E-1,-5.73363E-3,3.4121108E-1,1.7585403E-3,1.6796188E-2,-1.9513544E-1,1.6309446E-2,6.52615E-3,-4.032918E-3,2.2524913E-1,1.8472607E0,6.5443674E-3,1.6347705E-3,-6.2833745E-3,-4.6212706E-3,-3.6396119E-3,7.0246784E-3,1.74572E-3,-4.52882E-3,-3.6033473E-3,1.1593965E-2,-3.9153392E-3,7.466066E-3,-3.0561911E-3,1.0583473E-2,6.5639755E-3,-3.2149462E-3,1.9294742E-2,8.582335E-3],"categories":[],"categories_nodes":[],"categories_segments":[],"categories_sizes":[],"default_left":[0,0,0,0,0,0,0,0,0,0,0,0,0,0,0,0,0,0,0,0,0,0,0,0,0,0,0,0,0,0,0,0,0,0,0,0,0,0,0,0,0,0,0,0,0,0,0,0,0,0,0,0,0,0,0],"id":17,"left_children":[1,3,5,-1,7,9,11,13,15,17,19,-1,21,23,25,27,29,-1,31,33,35,37,-1,39,41,43,45,-1,47,-1,-1,49,-1,-1,-1,51,53,-1,-1,-1,-1,-1,-1,-1,-1,-1,-1,-1,-1,-1,-1,-1,-1,-1,-1],"loss_changes":[3.5182867E2,9.190216E1,2.6266708E1,0E0,2.4936646E1,2.620691E1,2.4621887E0,1.19748535E1,1.2009918E1,1.9931011E1,6.7714844E0,0E0,2.1839294E0,2.7118835E0,6.6569467E0,5.380724E0,1.4681702E0,0E0,1.127735E1,1.2933953E0,4.265053E0,2.386117E-2,0E0,1.4787292E0,1.3745451E0,1.6483712E0,7.6789837E0,0E0,5.335512E0,0E0,0E0,4.605982E0,0E0,0E0,0E0,9.301651E-1,4.1934204E-1,0E0,0E0,0E0,0E0,0E0,0E0,0E0,0E0,0E0,0E0,0E0,0E0,0E0,0E0,0E0,0E0,0E0,0E0],"parents":[2147483647,0,0,1,1,2,2,4,4,5,5,6,6,7,7,8,8,9,9,10,10,12,12,13,13,14,14,15,15,16,16,18,18,19,19,20,20,21,21,23,23,24,24,25,25,26,26,28,28,31,31,35,35,36,36],"right_children":[2,4,6,-1,8,10,12,14,16,18,20,-1,22,24,26,28,30,-1,32,34,36,38,-1,40,42,44,46,-1,48,-1,-1,50,-1,-1,-1,52,54,-1,-1,-1,-1,-1,-1,-1,-1,-1,-1,-1,-1,-1,-1,-1,-1,-1,-1],"split_conditions":[2.3E0,3.3E0,2.62E0,2.0156885E-2,4.13E1,3.97E1,4.72E2,7.29E2,9.7E1,3.3E0,6.94E1,1.6562883E-3,6.52E1,2.29E0,2.91E1,1.85E0,5.64E2,1.8606786E-2,8.02E2,4.33E1,4.69E2,6.18E1,1.9516991E-2,1.94E0,5.94E2,3.9E0,1.88E0,-5.73363E-3,5.62E2,1.7585403E-3,1.6796188E-2,9.9E1,1.6309446E-2,6.52615E-3,-4.032918E-3,2.32E0,7.6E0,6.5443674E-3,1.6347705E-3,-6.2833745E-3,-4.6212706E-3,-3.6396119E-3,7.0246784E-3,1.74572E-3,-4.52882E-3,-3.6033473E-3,1.1593965E-2,-3.9153392E-3,7.466066E-3,-3.0561911E-3,1.0583473E-2,6.5639755E-3,-3.2149462E-3,1.9294742E-2,8.582335E-3],"split_indices":[5,6,5,0,0,0,7,7,1,6,1,0,1,5,2,5,7,0,7,0,7,1,0,5,7,6,5,0,7,0,0,1,0,0,0,5,6,0,0,0,0,0,0,0,0,0,0,0,0,0,0,0,0,0,0],"split_type":[0,0,0,0,0,0,0,0,0,0,0,0,0,0,0,0,0,0,0,0,0,0,0,0,0,0,0,0,0,0,0,0,0,0,0,0,0,0,0,0,0,0,0,0,0,0,0,0,0,0,0,0,0,0,0],"sum_hessian":[1.0668417E3,9.498714E2,1.16970276E2,1.3125001E1,9.367464E2,6.806961E1,4.8900665E1,9.0552734E2,3.1219038E1,3.8750908E1,2.9318707E1,1.033133E0,4.786753E1,8.696601E2,3.5867237E1,2.533483E1,5.8842096E0,6.0304837E0,3.272042E1,2.7454545E0,2.6573252E1,2.0741248E0,4.5793407E1,8.666083E2,3.051843E0,2.3743078E1,1.2124158E1,9.357337E0,1.5977492E1,1.0136086E0,4.8706007E0,2.9923172E1,2.7972507E0,1.0394535E0,1.7060009E0,2.0507097E0,2.4522541E1,1.0370387E0,1.0370861E0,7.9420264E2,7.2405624E1,1.3410354E0,1.7108076E0,4.71583E0,1.9027248E1,4.983636E0,7.140522E0,5.70322E0,1.0274272E1,2.8194275E1,1.7288977E0,1.0344279E0,1.0162818E0,2.1762627E1,2.7599158E0],"tree_param":{"num_deleted":"0","num_feature":"8","num_nodes":"55","size_leaf_vector":"1"}},{"base_weights":[1.0640003E-1,-5.9206295E-1,5.4721296E-1,1.5173252E0,-6.643564E-1,1.3126395E0,-4.907423E-1,1.6125474E-2,5.5301604E-3,-6.6649616E-1,-9.113804E-5,-6.5257954E-3,1.46625E0,7.551558E-2,-5.991526E-1,-6.6862768E-3,-2.6134863E-1,1.5908729E0,6.177985E-1,7.2337335E-1,-5.728286E-1,9.090679E-3,-6.13444E-1,-4.406731E-3,1.0160742E-3,1.6134673E0,-5.2622915E-3,-4.7102377E-1,1.4005407E0,-4.619303E-1,1.1568049E0,-2.2375011E-1,-6.414544E-3,-3.7338614E-1,-6.471633E-1,1.6340178E-2,-3.1152328E-3,-6.390286E-3,5.7668416E-3,1.5225898E-2,3.4497E-3,-5.737916E-3,1.0286173E-3,1.2562159E-2,-1.6907914E-4,-5.198318E-3,3.8192517E-3,-8.261381E-5,-6.4028446E-3,-1.227564E-4,-6.5128296E-3],"categories":[],"categories_nodes":[],"categories_segments":[],"categories_sizes":[],"default_left":[0,0,0,0,0,0,0,0,0,0,0,0,0,0,0,0,0,0,0,0,0,0,0,0,0,0,0,0,0,0,0,0,0,0,0,0,0,0,0,0,0,0,0,0,0,0,0,0,0,0,0],"id":18,"left_children":[1,3,5,7,9,11,13,-1,-1,15,-1,-1,17,19,21,-1,23,25,27,29,31,-1,33,-1,-1,35,-1,37,39,41,43,45,-1,47,49,-1,-1,-1,-1,-1,-1,-1,-1,-1,-1,-1,-1,-1,-1,-1,-1],"loss_changes":[3.80878E2,7.401016E1,6.03083E2,5.9280396E-1,6.438446E-1,1.3278998E2,1.9847412E1,0E0,0E0,2.2427368E-1,0E0,0E0,4.1878174E1,2.2559143E1,6.395729E0,0E0,3.0901334E-1,1.7725342E1,4.629816E1,1.4309214E1,5.010967E-1,0E0,1.9350433E0,0E0,0E0,1.4328247E1,0E0,4.4423704E0,3.5207329E0,5.5774665E-1,2.3453312E0,1.2667289E0,0E0,3.45259E0,6.0515594E-1,0E0,0E0,0E0,0E0,0E0,0E0,0E0,0E0,0E0,0E0,0E0,0E0,0E0,0E0,0E0,0E0],"parents":[2147483647,0,0,1,1,2,2,3,3,4,4,5,5,6,6,9,9,12,12,13,13,14,14,16,16,17,17,18,18,19,19,20,20,22,22,25,25,27,27,28,28,29,29,30,30,31,31,33,33,34,34],"right_children":[2,4,6,8,10,12,14,-1,-1,16,-1,-1,18,20,22,-1,24,26,28,30,32,-1,34,-1,-1,36,-1,38,40,42,44,46,-1,48,50,-1,-1,-1,-1,-1,-1,-1,-1,-1,-1,-1,-1,-1,-1,-1,-1],"split_conditions":[1.17E0,9.1E0,1.81E0,6.43E2,6.08E2,5E0,3.04E1,1.6125474E-2,5.5301604E-3,3.34E1,-9.113804E-5,-6.5257954E-3,1E1,2.02E0,3.65E2,-6.6862768E-3,5.6E0,2.19E1,1.28E0,5.1E0,1E1,9.090679E-3,1.91E0,-4.406731E-3,1.0160742E-3,7.38E2,-5.2622915E-3,3.04E1,1.77E1,4.9E0,1.7E1,5.2E0,-6.414544E-3,1.35E1,9E-1,1.6340178E-2,-3.1152328E-3,-6.390286E-3,5.7668416E-3,1.5225898E-2,3.4497E-3,-5.737916E-3,1.0286173E-3,1.2562159E-2,-1.6907914E-4,-5.198318E-3,3.8192517E-3,-8.261381E-5,-6.4028446E-3,-1.227564E-4,-6.5128296E-3],"split_indices":[5,6,5,7,7,6,0,0,0,0,0,0,6,5,7,0,2,4,5,6,4,0,5,0,0,7,0,0,4,6,4,6,0,4,4,0,0,0,0,0,0,0,0,0,0,0,0,0,0,0,0],"split_type":[0,0,0,0,0,0,0,0,0,0,0,0,0,0,0,0,0,0,0,0,0,0,0,0,0,0,0,0,0,0,0,0,0,0,0,0,0,0,0,0,0,0,0,0,0,0,0,0,0,0,0],"sum_hessian":[1.2350004E3,4.7771823E2,7.572821E2,1.5167596E1,4.6255063E2,4.3570932E2,3.215728E2,1.31926365E1,1.9749595E0,4.6102792E2,1.5227027E0,3.135247E1,4.0435684E2,5.1721287E1,2.6985153E2,4.5796814E2,3.0597668E0,3.5180734E2,5.254949E1,2.5812464E1,2.5908823E1,1.9453155E0,2.6790622E2,1.90463E0,1.1551367E0,3.483278E2,3.47957E0,2.2144266E1,3.0405226E1,6.893924E0,1.891854E1,4.9565926E0,2.095223E1,3.4483196E1,2.33423E2,3.4479803E2,3.5297658E0,1.9420214E1,2.7240515E0,2.6857433E1,3.547792E0,5.740951E0,1.1529733E0,1.7376495E1,1.5420448E0,3.424347E0,1.5322456E0,1.4997343E1,1.9485853E1,1.5305598E0,2.3189246E2],"tree_param":{"num_deleted":"0","num_feature":"8","num_nodes":"51","size_leaf_vector":"1"}},{"base_weights":[-8.114587E-2,-5.3235877E-1,7.955144E-1,1.872488E-2,-5.898476E-1,-6.326782E-3,9.2988354E-1,-6.106825E-1,7.6887566E-1,1.0388092E0,-3.532128E-1,-6.160424E-1,9.897885E-3,1.8199964E-1,1.589903E-2,4.2015785E-1,1.2271658E0,3.4001872E-1,-6.2174294E-3,-6.214286E-1,9.89037E-3,-2.9700884E-1,6.530361E-1,1.760683E0,5.5860896E-2,1.3576319E0,2.9231495E-1,6.0153544E-1,-4.213668E-3,-6.329285E-3,-3.6970663E-3,1.3567845E-3,-4.6921046E-3,-3.4066888E-3,1.0925329E-2,1.8687695E-2,1.2527804E-3,-2.654325E-3,1.2860154E-2,1.4220621E-2,3.4617393E-3,1.5522604E-2,9.173695E-4,-3.4093445E-3,8.373052E-3],"categories":[],"categories_nodes":[],"categories_segments":[],"categories_sizes":[],"default_left":[0,0,0,0,0,0,0,0,0,0,0,0,0,0,0,0,0,0,0,0,0,0,0,0,0,0,0,0,0,0,0,0,0,0,0,0,0,0,0,0,0,0,0,0,0],"id":19,"left_children":[1,3,5,-1,7,-1,9,11,13,15,17,19,-1,21,-1,23,25,27,-1,29,-1,31,33,35,37,39,41,43,-1,-1,-1,-1,-1,-1,-1,-1,-1,-1,-1,-1,-1,-1,-1,-1,-1],"loss_changes":[4.55125E2,1.06107544E2,7.562442E1,0E0,2.1489838E1,0E0,5.03721E1,6.8880615E0,5.3273845E0,3.794348E1,5.5620394E0,6.9260864E0,0E0,1.9825358E0,0E0,3.8263153E1,3.039862E1,1.980139E0,0E0,1.8740234E0,0E0,4.0771863E-1,2.2542357E0,2.7272377E0,2.5162617E1,1.3929169E1,7.9941425E0,1.8112733E0,0E0,0E0,0E0,0E0,0E0,0E0,0E0,0E0,0E0,0E0,0E0,0E0,0E0,0E0,0E0,0E0,0E0],"parents":[2147483647,0,0,1,1,2,2,4,4,6,6,7,7,8,8,9,9,10,10,11,11,13,13,15,15,16,16,17,17,19,19,21,21,22,22,23,23,24,24,25,25,26,26,27,27],"right_children":[2,4,6,-1,8,-1,10,12,14,16,18,20,-1,22,-1,24,26,28,-1,30,-1,32,34,36,38,40,42,44,-1,-1,-1,-1,-1,-1,-1,-1,-1,-1,-1,-1,-1,-1,-1,-1,-1],"split_conditions":[1.69E0,5E0,3.3E0,1.872488E-2,3.71E1,-6.326782E-3,2.7E0,7.38E2,3.47E1,1.81E0,3.41E1,4.3E1,9.897885E-3,1.51E0,1.589903E-2,5E0,4.23E1,6.81E2,-6.2174294E-3,3.5E1,9.89037E-3,6.4E0,2.76E1,4.46E1,3.37E1,4.46E1,4.97E2,3.8E0,-4.213668E-3,-6.329285E-3,-3.6970663E-3,1.3567845E-3,-4.6921046E-3,-3.4066888E-3,1.0925329E-2,1.8687695E-2,1.2527804E-3,-2.654325E-3,1.2860154E-2,1.4220621E-2,3.4617393E-3,1.5522604E-2,9.173695E-4,-3.4093445E-3,8.373052E-3],"split_indices":[5,6,6,0,3,0,5,7,0,5,3,0,0,5,0,6,3,7,0,0,0,6,0,0,3,0,7,6,0,0,0,0,0,0,0,0,0,0,0,0,0,0,0,0,0],"split_type":[0,0,0,0,0,0,0,0,0,0,0,0,0,0,0,0,0,0,0,0,0,0,0,0,0,0,0,0,0,0,0,0,0,0,0,0,0,0,0,0,0,0,0,0,0],"sum_hessian":[1.1485122E3,7.585056E2,3.9000653E2,1.6971947E1,7.415337E2,3.321887E1,3.5678766E2,7.3087683E2,1.06568365E1,3.2904453E2,2.7743124E1,7.2905035E2,1.8264707E0,6.927025E0,3.7298112E0,7.755343E1,2.514911E2,7.671731E0,2.0071394E1,7.2722284E2,1.8275149E0,3.6176276E0,3.3093972E0,1.5753018E1,6.180041E1,2.2029488E2,3.1196215E1,5.866636E0,1.8050951E0,6.9400305E2,3.3219845E1,1.0902572E0,2.5273705E0,1.0837955E0,2.2256017E0,1.4642571E1,1.1104474E0,4.9623825E1,1.2176588E1,2.0672075E2,1.3574131E1,3.35879E0,2.7837425E1,1.0846784E0,4.7819576E0],"tree_param":{"num_deleted":"0","num_feature":"8","num_nodes":"45","size_leaf_vector":"1"}},{"base_weights":[2.647138E-1,-6.925103E-3,1.4378237E0,1.5121673E0,-5.3159964E-1,1.5337667E0,-5.435854E-2,1.5292054E-1,-6.5798895E-3,1.5508298E0,4.437735E-1,3.993896E-1,-5.461047E-3,9.147502E-3,-4.685401E-3,1.5572811E0,-1.4065973E-3,8.020934E-1,-4.9287006E-3,8.943943E-3,-4.268395E-3,1.5605162E-2,3.0267301E-3,1.7334186E-3,1.0019451E-2],"categories":[],"categories_nodes":[],"categories_segments":[],"categories_sizes":[],"default_left":[0,0,0,0,0,0,0,0,0,0,0,0,0,0,0,0,0,0,0,0,0,0,0,0,0],"id":20,"left_children":[1,-1,3,5,7,9,11,13,-1,15,17,19,-1,-1,-1,21,-1,23,-1,-1,-1,-1,-1,-1,-1],"loss_changes":[1.4914044E3,0E0,8.816907E1,1.9547607E1,2.0424976E0,9.865845E0,2.1793191E0,2.4690468E0,0E0,6.3116455E0,3.8008914E0,2.487638E0,0E0,0E0,0E0,1.7855225E0,0E0,7.9639435E-1,0E0,0E0,0E0,0E0,0E0,0E0,0E0],"parents":[2147483647,0,0,2,2,3,3,4,4,5,5,6,6,7,7,9,9,10,10,11,11,15,15,17,17],"right_children":[2,-1,4,6,8,10,12,14,-1,16,18,20,-1,-1,-1,22,-1,24,-1,-1,-1,-1,-1,-1,-1],"split_conditions":[1E1,-6.925103E-3,2.9E1,8.19E1,2.67E1,3.22E1,2.97E1,6.38E1,-6.5798895E-3,6.15E2,2.46E1,2.38E1,-5.461047E-3,9.147502E-3,-4.685401E-3,6.01E1,-1.4065973E-3,3.28E1,-4.9287006E-3,8.943943E-3,-4.268395E-3,1.5605162E-2,3.0267301E-3,1.7334186E-3,1.0019451E-2],"split_indices":[6,0,3,1,0,0,0,1,0,7,2,3,0,0,0,2,0,0,0,0,0,0,0,0,0],"split_type":[0,0,0,0,0,0,0,0,0,0,0,0,0,0,0,0,0,0,0,0,0,0,0,0,0],"sum_hessian":[1.326251E3,7.305515E2,5.9569946E2,5.7425415E2,2.1445301E1,5.664646E2,7.789585E0,3.3097723E0,1.8135529E1,5.5731744E2,9.147141E0,4.148999E0,3.640586E0,1.2749338E0,2.0348382E0,5.5527893E2,2.0385163E0,6.7200055E0,2.4271362E0,2.5429707E0,1.6060288E0,5.536076E2,1.6713151E0,2.0711944E0,4.6488113E0],"tree_param":{"num_deleted":"0","num_feature":"8","num_nodes":"25","size_leaf_vector":"1"}},{"base_weights":[-3.3611727E-1,-5.138824E-1,1.3027283E0,1.9963345E-2,-5.5626E-1,-3.0992225E-1,1.423665E0,-6.201651E-1,-1.1276479E-1,-5.3024916E-3,2.2948194E-1,1.090205E-1,1.5830088E0,-6.225754E-1,6.654685E-3,-3.281545E-1,6.2912214E-1,6.6166213E-3,-3.2021927E-3,-2.5102618E-1,1.1623782E-2,9.5941186E-1,1.8301097E0,-6.23749E-1,-1.9452628E-1,-3.9118403E-1,7.6262355E-1,-5.0702393E-3,8.4585065E-1,2.3048782E-1,-4.1487297E-1,-3.2905143E-1,1.2258933E0,1.4329289E0,1.9897675E-2,-6.2611257E-3,-3.848475E-3,1.7075035E-3,-3.979621E-3,-1.2035833E-3,-4.9782693E-3,-3.990963E-3,1.3881304E-2,4.659572E-3,1.4722498E-2,-3.1985855E-3,6.627535E-3,1.6928891E-3,-5.356199E-3,-4.758474E-3,6.210361E-4,1.5809795E-2,4.18957E-3,8.727324E-3,1.7555267E-2],"categories":[],"categories_nodes":[],"categories_segments":[],"categories_sizes":[],"default_left":[0,0,0,0,0,0,0,0,0,0,0,0,0,0,0,0,0,0,0,0,0,0,0,0,0,0,0,0,0,0,0,0,0,0,0,0,0,0,0,0,0,0,0,0,0,0,0,0,0,0,0,0,0,0,0],"id":21,"left_children":[1,3,5,-1,7,9,11,13,15,-1,17,19,21,23,-1,25,27,-1,-1,29,-1,31,33,35,37,39,41,-1,43,45,47,49,51,53,-1,-1,-1,-1,-1,-1,-1,-1,-1,-1,-1,-1,-1,-1,-1,-1,-1,-1,-1,-1,-1],"loss_changes":[3.0930103E2,1.0285353E2,2.0714447E1,0E0,2.6609253E1,1.0811049E0,2.0121246E1,2.9632874E0,1.9346802E1,0E0,9.338824E-1,4.670978E0,1.1546921E1,2.9135132E-1,0E0,6.7256737E0,7.149556E0,0E0,0E0,8.3942074E-1,0E0,9.53726E0,9.9975586E-1,2.2143555E-1,3.4286618E-1,2.511732E0,4.5114017E0,0E0,4.857662E0,9.3433636E-1,6.120281E-1,3.3659768E-1,5.7143326E0,2.2603416E0,0E0,0E0,0E0,0E0,0E0,0E0,0E0,0E0,0E0,0E0,0E0,0E0,0E0,0E0,0E0,0E0,0E0,0E0,0E0,0E0,0E0],"parents":[2147483647,0,0,1,1,2,2,4,4,5,5,6,6,7,7,8,8,10,10,11,11,12,12,13,13,15,15,16,16,19,19,21,21,22,22,23,23,24,24,25,25,26,26,28,28,29,29,30,30,31,31,32,32,33,33],"right_children":[2,4,6,-1,8,10,12,14,16,-1,18,20,22,24,-1,26,28,-1,-1,30,-1,32,34,36,38,40,42,-1,44,46,48,50,52,54,-1,-1,-1,-1,-1,-1,-1,-1,-1,-1,-1,-1,-1,-1,-1,-1,-1,-1,-1,-1,-1],"split_conditions":[2.33E0,3.3E0,4.78E2,1.9963345E-2,1.94E0,3.16E1,2.78E1,1.463E2,3.96E1,-5.3024916E-3,6.65E1,8.12E2,2.47E0,4.61E1,6.654685E-3,1.024E2,5.16E2,6.6166213E-3,-3.2021927E-3,3.8E0,1.1623782E-2,7.14E1,3.67E1,9.78E1,7E1,4.2E0,2.08E1,-5.0702393E-3,9.33E1,6.25E2,2.29E1,4.22E1,5.2E0,6.65E2,1.9897675E-2,-6.2611257E-3,-3.848475E-3,1.7075035E-3,-3.979621E-3,-1.2035833E-3,-4.9782693E-3,-3.990963E-3,1.3881304E-2,4.659572E-3,1.4722498E-2,-3.1985855E-3,6.627535E-3,1.6928891E-3,-5.356199E-3,-4.758474E-3,6.210361E-4,1.5809795E-2,4.18957E-3,8.727324E-3,1.7555267E-2],"split_indices":[5,6,7,0,5,2,3,2,3,0,2,7,5,3,0,1,7,0,0,6,0,1,3,1,1,6,2,0,1,7,3,2,6,7,0,0,0,0,0,0,0,0,0,0,0,0,0,0,0,0,0,0,0,0,0],"split_type":[0,0,0,0,0,0,0,0,0,0,0,0,0,0,0,0,0,0,0,0,0,0,0,0,0,0,0,0,0,0,0,0,0,0,0,0,0,0,0,0,0,0,0,0,0,0,0,0,0,0,0,0,0,0,0],"sum_hessian":[1.0583895E3,9.554397E2,1.0294986E2,1.5096504E1,9.403432E2,7.072869E0,9.587699E1,8.215624E2,1.187808E2,5.0337415E0,2.0391273E0,1.0546735E1,8.533025E1,8.205398E2,1.0226231E0,9.248701E1,2.6293789E1,1.0275679E0,1.0115595E0,8.427748E0,2.1189868E0,2.5602112E1,5.972814E1,8.178403E2,2.6995382E0,8.8041016E1,4.4459906E0,3.9976487E0,2.229614E1,2.0364087E0,6.3913393E0,4.3473687E0,2.1254744E1,1.9985416E1,3.9742725E1,8.082233E2,9.61689E0,1.0231328E0,1.6764057E0,2.547484E1,6.2566177E1,1.6827235E0,2.7632673E0,1.4964476E1,7.3316646E0,1.0102428E0,1.0261658E0,1.0259377E0,5.3654013E0,3.0036244E0,1.343744E0,1.4093686E1,7.1610575E0,8.657263E0,1.1328154E1],"tree_param":{"num_deleted":"0","num_feature":"8","num_nodes":"55","size_leaf_vector":"1"}},{"base_weights":[8.4111296E-2,-6.100342E-1,5.0918084E-1,1.414624E0,-6.648199E-1,1.2443175E0,-4.5577478E-1,1.6146248E-2,2.1863517E-3,-6.6699185E-3,-9.63634E-5,-6.5064137E-3,1.390682E0,-5.372738E-2,-6.577319E-1,1.5550984E0,4.889672E-1,6.286472E-1,-4.1877928E-1,-3.4728977E-1,-6.621101E-3,1.6010952E0,-1.1859218E-1,-4.6404663E-1,1.4166168E0,-5.082875E-1,9.899626E-1,1.0110555E-2,-4.559747E-1,-5.043361E-3,1.1196958E-3,1.620179E-2,-5.01208E-3,8.134172E-3,-5.882621E-3,-6.0944683E-3,3.2583405E-3,1.4656229E-2,7.6331646E-4,-5.9789745E-3,1.0277684E-3,1.2464442E-2,-2.3832603E-3,-6.5274187E-3,-2.3821776E-3],"categories":[],"categories_nodes":[],"categories_segments":[],"categories_sizes":[],"default_left":[0,0,0,0,0,0,0,0,0,0,0,0,0,0,0,0,0,0,0,0,0,0,0,0,0,0,0,0,0,0,0,0,0,0,0,0,0,0,0,0,0,0,0,0,0],"id":22,"left_children":[1,3,5,7,9,11,13,-1,-1,-1,-1,-1,15,17,19,21,23,25,27,29,-1,31,33,35,37,39,41,-1,43,-1,-1,-1,-1,-1,-1,-1,-1,-1,-1,-1,-1,-1,-1,-1,-1],"loss_changes":[3.6391452E2,5.290477E1,5.4311743E2,2.6757927E0,6.43631E-1,1.2138153E2,2.6877327E1,0E0,0E0,0E0,0E0,0E0,5.9068726E1,2.8141357E1,6.97937E-2,2.6430664E1,5.696638E1,1.6690237E1,4.370511E0,4.2936546E-1,0E0,1.4124268E1,4.8768935E0,3.8933172E0,2.0243149E0,6.179755E-1,9.8239975E0,0E0,2.943884E0,0E0,0E0,0E0,0E0,0E0,0E0,0E0,0E0,0E0,0E0,0E0,0E0,0E0,0E0,0E0,0E0],"parents":[2147483647,0,0,1,1,2,2,3,3,4,4,5,5,6,6,12,12,13,13,14,14,15,15,16,16,17,17,18,18,19,19,21,21,22,22,23,23,24,24,25,25,26,26,28,28],"right_children":[2,4,6,8,10,12,14,-1,-1,-1,-1,-1,16,18,20,22,24,26,28,30,-1,32,34,36,38,40,42,-1,44,-1,-1,-1,-1,-1,-1,-1,-1,-1,-1,-1,-1,-1,-1,-1,-1],"split_conditions":[1.16E0,9.1E0,1.79E0,6.43E2,6.09E2,5E0,2.02E0,1.6146248E-2,2.1863517E-3,-6.6699185E-3,-9.63634E-5,-6.5064137E-3,1E1,3.13E1,2.03E0,9.36E1,1.28E0,5.1E0,3.49E2,2.4E1,-6.621101E-3,7.38E2,3.05E1,2.98E1,1.75E0,4.9E0,6.6E2,1.0110555E-2,5E0,-5.043361E-3,1.1196958E-3,1.620179E-2,-5.01208E-3,8.134172E-3,-5.882621E-3,-6.0944683E-3,3.2583405E-3,1.4656229E-2,7.6331646E-4,-5.9789745E-3,1.0277684E-3,1.2464442E-2,-2.3832603E-3,-6.5274187E-3,-2.3821776E-3],"split_indices":[5,6,5,7,7,6,5,0,0,0,0,0,6,0,5,1,5,6,7,2,0,7,0,0,5,6,7,0,6,0,0,0,0,0,0,0,0,0,0,0,0,0,0,0,0],"split_type":[0,0,0,0,0,0,0,0,0,0,0,0,0,0,0,0,0,0,0,0,0,0,0,0,0,0,0,0,0,0,0,0,0,0,0,0,0,0,0,0,0,0,0,0,0],"sum_hessian":[1.2313043E3,4.6747498E2,7.638294E2,1.1662295E1,4.5581265E2,4.3337775E2,3.3045166E2,9.691575E0,1.9707206E0,4.5428864E2,1.5240185E0,3.082648E1,4.0255124E2,1.10914314E2,2.1953735E2,3.3985782E2,6.2693447E1,3.8404495E1,7.250982E1,4.170122E0,2.1536723E2,3.3080978E2,9.048027E0,3.1170464E1,3.1522982E1,9.1634655E0,2.924103E1,1.1745996E0,7.133522E1,3.0343559E0,1.135766E0,3.280611E2,2.7486825E0,2.7865424E0,6.261485E0,2.6517576E1,4.652888E0,3.0320816E1,1.2021652E0,8.010332E0,1.1531332E0,2.4177658E1,5.0633726E0,3.64243E1,3.491092E1],"tree_param":{"num_deleted":"0","num_feature":"8","num_nodes":"45","size_leaf_vector":"1"}},{"base_weights":[-9.737831E-2,-5.318356E-1,7.515695E-1,1.7895183E-2,-5.888753E-1,-6.331751E-3,8.9516807E-1,-6.1091095E-1,7.6255435E-1,1.0183249E0,-1.620654E-1,-6.162715E-1,1.2271376E-2,1.2995055E-1,1.3705787E-2,4.0658772E-1,1.2018106E0,3.7834442E-1,-5.3543484E-1,-6.2165225E-1,1.2247759E-2,1.3062622E-2,-5.305244E-3,1.7237578E-2,3.12049E-2,1.2890031E0,-1.6331956E-1,7.180707E-1,-3.6467814E-1,9.508018E-2,-6.190819E-3,-6.282222E-3,-1.7296744E-4,-2.8306367E-3,1.22487545E-2,1.3542961E-2,1.7891428E-3,5.754878E-3,-5.0671673E-3,9.387089E-3,-1.3925695E-3,1.3658748E-3,-5.1270192E-3,6.0553793E-3,-3.8468956E-3],"categories":[],"categories_nodes":[],"categories_segments":[],"categories_sizes":[],"default_left":[0,0,0,0,0,0,0,0,0,0,0,0,0,0,0,0,0,0,0,0,0,0,0,0,0,0,0,0,0,0,0,0,0,0,0,0,0,0,0,0,0,0,0,0,0],"id":23,"left_children":[1,3,5,-1,7,-1,9,11,13,15,17,19,-1,21,-1,23,25,27,29,31,-1,-1,-1,-1,33,35,37,39,41,43,-1,-1,-1,-1,-1,-1,-1,-1,-1,-1,-1,-1,-1,-1,-1],"loss_changes":[4.2559702E2,1.0210266E2,7.824983E1,0E0,2.2669678E1,0E0,4.630664E1,7.9902344E0,4.594172E0,3.5153473E1,7.8369794E0,8.0199585E0,0E0,6.275541E0,0E0,3.6919964E1,2.9225098E1,4.3122616E0,1.26086E0,2.8926697E0,0E0,0E0,0E0,0E0,2.2559196E1,1.6373108E1,4.2296276E0,2.2773318E0,4.928028E-1,1.0989798E0,0E0,0E0,0E0,0E0,0E0,0E0,0E0,0E0,0E0,0E0,0E0,0E0,0E0,0E0,0E0],"parents":[2147483647,0,0,1,1,2,2,4,4,6,6,7,7,8,8,9,9,10,10,11,11,13,13,15,15,16,16,17,17,18,18,19,19,24,24,25,25,26,26,27,27,28,28,29,29],"right_children":[2,4,6,-1,8,-1,10,12,14,16,18,20,-1,22,-1,24,26,28,30,32,-1,-1,-1,-1,34,36,38,40,42,44,-1,-1,-1,-1,-1,-1,-1,-1,-1,-1,-1,-1,-1,-1,-1],"split_conditions":[1.69E0,5E0,3.3E0,1.7895183E-2,3.65E1,-6.331751E-3,2.62E0,2.25E1,1.14E1,1.81E0,3.67E1,4.3E1,1.2271376E-2,6.2E0,1.3705787E-2,5E0,4.61E1,6.81E2,1.1E1,6.98E2,1.2247759E-2,1.3062622E-2,-5.305244E-3,1.7237578E-2,3.37E1,4.46E1,1.47E1,3.01E0,1.4E1,3.66E1,-6.190819E-3,-6.282222E-3,-1.7296744E-4,-2.8306367E-3,1.22487545E-2,1.3542961E-2,1.7891428E-3,5.754878E-3,-5.0671673E-3,9.387089E-3,-1.3925695E-3,1.3658748E-3,-5.1270192E-3,6.0553793E-3,-3.8468956E-3],"split_indices":[5,6,6,0,3,0,5,4,4,5,3,0,0,6,0,6,3,7,4,7,0,0,0,0,3,0,4,5,4,0,0,0,0,0,0,0,0,0,0,0,0,0,0,0,0],"split_type":[0,0,0,0,0,0,0,0,0,0,0,0,0,0,0,0,0,0,0,0,0,0,0,0,0,0,0,0,0,0,0,0,0,0,0,0,0,0,0,0,0,0,0,0,0],"sum_hessian":[1.1518223E3,7.621554E2,3.896669E2,1.7549921E1,7.4460547E2,3.62916E1,3.533753E2,7.331983E2,1.140718E1,3.1653864E2,3.6836674E1,7.31729E2,1.4693143E0,6.1854296E0,5.2217503E0,7.377859E1,2.4276004E2,1.5045989E1,2.1790684E1,7.30257E2,1.4719504E0,1.8725823E0,4.3128476E0,1.5566331E1,5.8212254E1,2.2823796E2,1.4522076E1,1.0348164E1,4.697826E0,2.5362513E0,1.9254433E1,7.223646E2,7.8923817E0,4.6684155E1,1.1528102E1,2.1535146E2,1.2886508E1,4.393577E0,1.0128498E1,8.154604E0,2.1935592E0,1.088615E0,3.6092107E0,1.1018159E0,1.4344354E0],"tree_param":{"num_deleted":"0","num_feature":"8","num_nodes":"45","size_leaf_vector":"1"}},{"base_weights":[2.4445187E-1,1.4717503E0,-6.588331E-1,1.5104762E0,-3.280726E-1,2.7999619E-2,-6.8281025E-1,1.5264525E0,-3.8283983E-1,6.2081546E-1,-6.2365127E-3,8.1633323E-1,-5.3060365E-1,1.8532656E-3,-6.8545806E-1,1.5362746E0,-2.6038522E-1,6.2766986E-4,-5.275803E-3,8.997611E-3,5.726057E-4,1.1365501E0,-4.6489546E-3,-7.041307E-2,-6.405576E-3,6.665131E-4,-6.867887E-1,1.5411489E0,-5.550604E-4,6.1192416E-4,-4.339089E-3,1.2904241E-2,5.7234225E-4,4.912596E-3,-4.6581915E-3,-3.822779E-1,-6.881038E-3,1.5443927E-2,5.9868314E-4,6.4213556E-4,-5.274071E-3],"categories":[],"categories_nodes":[],"categories_segments":[],"categories_sizes":[],"default_left":[0,0,0,0,0,0,0,0,0,0,0,0,0,0,0,0,0,0,0,0,0,0,0,0,0,0,0,0,0,0,0,0,0,0,0,0,0,0,0,0,0],"id":24,"left_children":[1,3,5,7,9,11,13,15,17,19,-1,21,23,-1,25,27,29,-1,-1,-1,-1,31,-1,33,-1,-1,35,37,-1,-1,-1,-1,-1,-1,-1,39,-1,-1,-1,-1,-1],"loss_changes":[1.4789941E3,3.9914185E1,1.267804E1,1.7336426E1,3.9586644E0,1.2274598E1,1.8345032E0,1.0041748E1,3.8356978E-1,5.0271165E-1,0E0,5.2652836E0,7.8191185E-1,0E0,7.8707886E-1,4.32605E0,2.4185687E-1,0E0,0E0,0E0,0E0,1.5084515E0,0E0,1.1783862E0,0E0,0E0,3.314209E-2,2.5257568E0,0E0,0E0,0E0,0E0,0E0,0E0,0E0,3.8573653E-1,0E0,0E0,0E0,0E0,0E0],"parents":[2147483647,0,0,1,1,2,2,3,3,4,4,5,5,6,6,7,7,8,8,9,9,11,11,12,12,14,14,15,15,16,16,21,21,23,23,26,26,27,27,35,35],"right_children":[2,4,6,8,10,12,14,16,18,20,-1,22,24,-1,26,28,30,-1,-1,-1,-1,32,-1,34,-1,-1,36,38,-1,-1,-1,-1,-1,-1,-1,40,-1,-1,-1,-1,-1],"split_conditions":[1.21E0,1.04E1,1.27E0,2.93E1,1.04E0,2.79E1,2.73E2,6.11E2,2.85E1,6.29E1,-6.2365127E-3,2.79E1,5.2E0,1.8532656E-3,1.43E1,8.31E1,6.32E2,6.2766986E-4,-5.275803E-3,8.997611E-3,5.726057E-4,5.41E2,-4.6489546E-3,4.61E2,-6.405576E-3,6.665131E-4,1.28E0,3.53E1,-5.550604E-4,6.1192416E-4,-4.339089E-3,1.2904241E-2,5.7234225E-4,4.912596E-3,-4.6581915E-3,4.17E2,-6.881038E-3,1.5443927E-2,5.9868314E-4,6.4213556E-4,-5.274071E-3],"split_indices":[5,4,5,3,5,0,7,7,0,1,0,3,4,0,3,1,7,0,0,0,0,7,0,7,0,0,5,0,0,0,0,0,0,0,0,7,0,0,0,0,0],"split_type":[0,0,0,0,0,0,0,0,0,0,0,0,0,0,0,0,0,0,0,0,0,0,0,0,0,0,0,0,0,0,0,0,0,0,0,0,0,0,0,0,0],"sum_hessian":[1.3322349E3,5.6454926E2,7.676856E2,5.5281537E2,1.1733906E1,2.5890032E1,7.417956E2,5.483817E2,4.433637E0,2.5256245E0,9.2082815E0,1.0545799E1,1.53442335E1,2.0458403E0,7.3974976E2,5.455233E2,2.858419E0,1.225889E0,3.207748E0,1.2903514E0,1.2352732E0,8.527458E0,2.0183413E0,3.275533E0,1.20687E1,1.2197387E0,7.3853E2,5.438896E2,1.6336967E0,1.2287073E0,1.6297116E0,7.2922363E0,1.2352216E0,1.2530967E0,2.0224364E0,4.430177E0,7.340998E2,5.426586E2,1.2309805E0,1.2235268E0,3.2066505E0],"tree_param":{"num_deleted":"0","num_feature":"8","num_nodes":"41","size_leaf_vector":"1"}},{"base_weights":[-3.3365282E-1,-4.9158922E-1,1.0918621E0,-5.661531E-1,4.615614E-1,6.489179E-1,1.6578248E0,-5.8782667E-1,5.8201396E-1,-2.9846475E-1,9.710329E-1,3.6340547E-1,1.7322105E0,-1.4380418E-1,1.7579945E0,-6.054666E-1,1.0534399E-1,-7.998222E-3,8.150686E-1,-3.9321274E-1,1.1014207E-2,4.4467843E-1,1.4253112E0,7.3672703E-4,1.1964866E0,4.5524398E-4,1.939401E-2,-3.6011504E-3,1.7779869E-3,1.0899112E0,1.9792484E-2,-6.077718E-1,4.626E-3,-2.0045824E-1,1.0000408E0,-2.8847364E-1,6.353737E-3,5.2430075E-1,1.48378145E-2,-5.5428934E-1,9.221423E-2,9.3594216E-2,1.0817673E0,3.8507256E-1,1.7459663E0,-2.2281925E-1,1.1602637E0,7.165834E-2,1.4393553E0,1.396643E-1,1.290058E0,-6.18853E-3,-3.9670467E-3,-3.4722677E-3,8.564655E-3,1.7101872E-3,1.13974055E-2,1.7105831E-3,-4.626166E-3,1.7136852E-3,1.3697238E-2,-6.0032043E-3,1.7232614E-3,-4.8930184E-3,6.4853774E-3,-3.530694E-3,7.539778E-3,1.2080989E-2,1.6239374E-3,-2.8598674E-3,1.3734282E-2,1.6866808E-3,1.839456E-2,-4.2400802E-3,2.6483338E-3,-3.171241E-3,1.5271903E-2,6.608027E-3,-3.9984444E-3,1.6826692E-3,1.5403633E-2,-3.6602048E-3,6.5475004E-3,1.39532825E-2,1.6222429E-3],"categories":[],"categories_nodes":[],"categories_segments":[],"categories_sizes":[],"default_left":[0,0,0,0,0,0,0,0,0,0,0,0,0,0,0,0,0,0,0,0,0,0,0,0,0,0,0,0,0,0,0,0,0,0,0,0,0,0,0,0,0,0,0,0,0,0,0,0,0,0,0,0,0,0,0,0,0,0,0,0,0,0,0,0,0,0,0,0,0,0,0,0,0,0,0,0,0,0,0,0,0,0,0,0,0],"id":25,"left_children":[1,3,5,7,9,11,13,15,17,19,21,23,25,27,29,31,33,35,37,39,-1,41,43,45,47,-1,-1,-1,-1,49,-1,51,-1,53,55,57,-1,59,-1,61,63,65,67,69,71,73,75,77,79,81,83,-1,-1,-1,-1,-1,-1,-1,-1,-1,-1,-1,-1,-1,-1,-1,-1,-1,-1,-1,-1,-1,-1,-1,-1,-1,-1,-1,-1,-1,-1,-1,-1,-1,-1],"loss_changes":[2.382406E2,6.78625E1,2.540158E1,2.230603E1,2.7225113E1,1.820381E1,8.505051E0,1.066217E1,2.324129E0,4.2372913E0,9.380371E0,1.4941322E1,4.257496E0,2.9588252E-1,4.2571106E0,2.3626099E0,6.318725E0,1.2231795E0,1.5732164E0,2.2091956E0,0E0,4.5633707E0,6.674637E0,9.449551E0,3.9944344E0,0E0,0E0,0E0,0E0,2.2963257E0,0E0,1.7285461E0,0E0,3.0118546E0,4.8413038E-1,4.5532578E-1,0E0,2.741276E0,0E0,8.013606E-1,2.8193507E0,4.5550766E0,6.5338326E-1,4.6858053E0,2.1307106E0,3.1109722E0,3.6784077E0,1.2964278E0,1.3178673E0,1.1218315E0,1.0362415E0,0E0,0E0,0E0,0E0,0E0,0E0,0E0,0E0,0E0,0E0,0E0,0E0,0E0,0E0,0E0,0E0,0E0,0E0,0E0,0E0,0E0,0E0,0E0,0E0,0E0,0E0,0E0,0E0,0E0,0E0,0E0,0E0,0E0,0E0],"parents":[2147483647,0,0,1,1,2,2,3,3,4,4,5,5,6,6,7,7,8,8,9,9,10,10,11,11,12,12,13,13,14,14,15,15,16,16,17,17,18,18,19,19,21,21,22,22,23,23,24,24,29,29,31,31,33,33,34,34,35,35,37,37,39,39,40,40,41,41,42,42,43,43,44,44,45,45,46,46,47,47,48,48,49,49,50,50],"right_children":[2,4,6,8,10,12,14,16,18,20,22,24,26,28,30,32,34,36,38,40,-1,42,44,46,48,-1,-1,-1,-1,50,-1,52,-1,54,56,58,-1,60,-1,62,64,66,68,70,72,74,76,78,80,82,84,-1,-1,-1,-1,-1,-1,-1,-1,-1,-1,-1,-1,-1,-1,-1,-1,-1,-1,-1,-1,-1,-1,-1,-1,-1,-1,-1,-1,-1,-1,-1,-1,-1,-1],"split_conditions":[3.87E1,2E1,4E1,4.37E1,3.43E1,2.34E1,4.71E2,7.46E2,7.63E1,7.87E2,8.46E1,4.54E1,5.37E2,4.11E1,1.49E1,1.082E2,3.54E1,4.84E1,3.65E1,2.51E1,1.1014207E-2,6.93E2,1.18E1,9.83E1,7E1,4.5524398E-4,1.939401E-2,-3.6011504E-3,1.7779869E-3,4.13E1,1.9792484E-2,3.78E1,4.626E-3,8.33E2,1.35E1,1.06E1,6.353737E-3,7.67E2,1.48378145E-2,1.066E2,3.07E1,4.06E1,3.54E1,2.63E1,4.69E2,6.72E2,6.5E0,5.76E2,4.86E2,7.61E2,1.4E1,-6.18853E-3,-3.9670467E-3,-3.4722677E-3,8.564655E-3,1.7101872E-3,1.13974055E-2,1.7105831E-3,-4.626166E-3,1.7136852E-3,1.3697238E-2,-6.0032043E-3,1.7232614E-3,-4.8930184E-3,6.4853774E-3,-3.530694E-3,7.539778E-3,1.2080989E-2,1.6239374E-3,-2.8598674E-3,1.3734282E-2,1.6866808E-3,1.839456E-2,-4.2400802E-3,2.6483338E-3,-3.171241E-3,1.5271903E-2,6.608027E-3,-3.9984444E-3,1.6826692E-3,1.5403633E-2,-3.6602048E-3,6.5475004E-3,1.39532825E-2,1.6222429E-3],"split_indices":[3,4,0,0,0,4,7,7,1,7,1,3,7,0,4,1,3,0,3,4,0,7,2,1,1,0,0,0,0,0,0,0,0,7,4,4,0,7,0,1,3,0,3,4,7,7,2,7,7,7,4,0,0,0,0,0,0,0,0,0,0,0,0,0,0,0,0,0,0,0,0,0,0,0,0,0,0,0,0,0,0,0,0,0,0],"split_type":[0,0,0,0,0,0,0,0,0,0,0,0,0,0,0,0,0,0,0,0,0,0,0,0,0,0,0,0,0,0,0,0,0,0,0,0,0,0,0,0,0,0,0,0,0,0,0,0,0,0,0,0,0,0,0,0,0,0,0,0,0,0,0,0,0,0,0,0,0,0,0,0,0,0,0,0,0,0,0,0,0,0,0,0,0],"sum_hessian":[1.0548013E3,9.501832E2,1.0461806E2,8.8162103E2,6.85622E1,5.9891346E1,4.4726707E1,8.657663E2,1.5854726E1,2.768142E1,4.0880787E1,4.8455803E1,1.1435542E1,2.3328624E0,4.239385E1,8.4440424E2,2.1362036E1,4.762765E0,1.1091962E1,2.660016E1,1.0812589E0,1.9854742E1,2.1026045E1,3.4456566E1,1.3999237E1,1.3844886E0,1.0051054E1,1.3231547E0,1.0097077E0,1.2021276E1,3.037257E1,8.4301575E2,1.3885229E0,1.649879E1,4.863244E0,3.700966E0,1.0617989E0,8.973969E0,2.1179917E0,1.9866205E1,6.7339544E0,1.3540055E1,6.3146863E0,5.4727535E0,1.555329E1,2.9564405E1,4.8921604E0,2.7158816E0,1.1283356E1,2.3868623E0,9.634415E0,7.9912866E2,4.388709E1,1.5076662E1,1.4221294E0,1.0220817E0,3.8411622E0,1.0219467E0,2.6790192E0,7.1795006E0,1.7944694E0,1.8846117E1,1.0200899E0,3.3513324E0,3.382622E0,8.354608E0,5.185448E0,5.275704E0,1.0389823E0,3.6828618E0,1.7898916E0,1.0271984E0,1.4526093E1,2.1021973E1,8.542433E0,1.0002993E0,3.891861E0,1.0288491E0,1.6870325E0,1.0268846E0,1.0256472E1,1.3504542E0,1.036408E0,8.594995E0,1.0394199E0],"tree_param":{"num_deleted":"0","num_feature":"8","num_nodes":"85","size_leaf_vector":"1"}},{"base_weights":[1.1139978E-1,5.786915E-1,-5.357411E-1,-6.655985E-3,1.0770597E0,-5.886118E-1,5.411749E-1,1.3114853E0,-2.786607E-1,-6.13328E-1,7.175013E-1,1.0176998E0,-4.796904E-1,1.4098341E0,-5.9745246E-1,2.6096085E-1,-6.158364E-1,-6.2314093E-1,8.1327224E-1,9.043343E-1,-3.6125537E-3,1.1381931E0,-3.6232553E-3,9.3849894E-4,-5.8203656E-3,1.4762685E0,-1.87702E-1,-1.401039E-4,-6.39818E-3,5.6901306E-1,-4.9227145E-1,1.0597232E-3,-6.358651E-3,-6.29091E-1,7.3211472E-3,9.6297066E-4,1.0948238E-2,2.2088694E-3,1.0739886E-2,-3.5434507E-3,1.2734193E0,1.5276719E-2,1.5821367E-3,7.2279917E-3,-6.2093213E-3,7.684115E-3,-5.0614346E-3,-1.3012414E-4,-5.844856E-3,-6.389005E-3,1.5667556E-3,-1.6768165E-4,1.421306E-2],"categories":[],"categories_nodes":[],"categories_segments":[],"categories_sizes":[],"default_left":[0,0,0,0,0,0,0,0,0,0,0,0,0,0,0,0,0,0,0,0,0,0,0,0,0,0,0,0,0,0,0,0,0,0,0,0,0,0,0,0,0,0,0,0,0,0,0,0,0,0,0,0,0],"id":26,"left_children":[1,3,5,-1,7,9,11,13,15,17,19,21,23,25,27,29,31,33,35,37,-1,39,-1,-1,-1,41,43,-1,-1,45,47,-1,-1,49,-1,-1,-1,-1,-1,-1,51,-1,-1,-1,-1,-1,-1,-1,-1,-1,-1,-1,-1],"loss_changes":[3.7733646E2,4.4996912E2,3.01138E1,0E0,1.6488715E2,1.6558182E1,1.2654684E1,8.373474E1,1.4196274E1,7.374161E0,2.2884912E0,3.3009453E0,5.617138E-1,4.4872253E1,5.431142E-1,7.326351E0,7.580414E-1,4.3939056E0,6.586497E-1,7.578721E-1,0E0,3.7244492E0,0E0,0E0,0E0,2.7098083E1,7.416218E0,0E0,0E0,5.1089315E0,4.0564132E-1,0E0,0E0,3.8475494E0,0E0,0E0,0E0,0E0,0E0,0E0,2.90267E0,0E0,0E0,0E0,0E0,0E0,0E0,0E0,0E0,0E0,0E0,0E0,0E0],"parents":[2147483647,0,0,1,1,2,2,4,4,5,5,6,6,7,7,8,8,9,9,10,10,11,11,12,12,13,13,14,14,15,15,16,16,17,17,18,18,19,19,21,21,25,25,26,26,29,29,30,30,33,33,40,40],"right_children":[2,4,6,-1,8,10,12,14,16,18,20,22,24,26,28,30,32,34,36,38,-1,40,-1,-1,-1,42,44,-1,-1,46,48,-1,-1,50,-1,-1,-1,-1,-1,-1,52,-1,-1,-1,-1,-1,-1,-1,-1,-1,-1,-1,-1],"split_conditions":[1E1,5E0,9.9E0,-6.655985E-3,1.74E1,2.9E1,3.26E1,3.84E1,3.2E1,8.19E1,6.41E2,6.81E2,4.27E2,9.33E1,4.6E0,8.52E1,5.86E1,6.11E2,9.3E0,5.9E0,-3.6125537E-3,1.71E1,-3.6232553E-3,9.3849894E-4,-5.8203656E-3,7.05E2,2.62E1,-1.401039E-4,-6.39818E-3,6.74E2,2.36E1,1.0597232E-3,-6.358651E-3,4.29E1,7.3211472E-3,9.6297066E-4,1.0948238E-2,2.2088694E-3,1.0739886E-2,-3.5434507E-3,2.91E2,1.5276719E-2,1.5821367E-3,7.2279917E-3,-6.2093213E-3,7.684115E-3,-5.0614346E-3,-1.3012414E-4,-5.844856E-3,-6.389005E-3,1.5667556E-3,-1.6768165E-4,1.421306E-2],"split_indices":[6,6,4,0,4,3,3,3,3,1,7,7,7,1,4,1,1,7,2,2,0,3,0,0,0,7,3,0,0,7,3,0,0,2,0,0,0,0,0,0,7,0,0,0,0,0,0,0,0,0,0,0,0],"split_type":[0,0,0,0,0,0,0,0,0,0,0,0,0,0,0,0,0,0,0,0,0,0,0,0,0,0,0,0,0,0,0,0,0,0,0,0,0,0,0,0,0,0,0,0,0,0,0,0,0,0,0,0,0],"sum_hessian":[1.245766E3,7.234664E2,5.2229956E2,2.0680215E2,5.1666425E2,4.9828967E2,2.400989E1,4.405234E2,7.614084E1,4.89556E2,8.733669E0,1.637117E1,7.6387196E0,4.191882E2,2.1335207E1,2.936717E1,4.677367E1,4.867709E2,2.7850864E0,7.5821786E0,1.1514912E0,1.5217711E1,1.1534582E0,1.1692643E0,6.4694552E0,4.025249E2,1.6663311E1,1.5344244E0,1.9800783E1,2.1016533E1,8.350637E0,1.146979E0,4.5626694E1,4.851766E2,1.5942975E0,1.1637086E0,1.621378E0,1.9656405E0,5.616538E0,1.1295937E0,1.4088118E1,3.8726282E2,1.5262066E1,5.1568937E0,1.1506417E1,1.7969257E1,3.047275E0,1.5316098E0,6.8190274E0,4.7937894E2,5.797663E0,1.5399512E0,1.2548166E1],"tree_param":{"num_deleted":"0","num_feature":"8","num_nodes":"53","size_leaf_vector":"1"}},{"base_weights":[-1.0089191E-1,8.876061E-1,-3.3481315E-1,-6.312984E-3,1.1726116E0,-5.258578E-1,4.8203218E-1,1.3088975E0,-2.624345E-1,-5.882105E-1,5.283471E-1,1.7130902E-1,8.151015E-1,1.4313017E0,1.0077442E-1,6.3807046E-1,-5.316608E-1,-6.017649E-1,9.526256E-1,1.9314323E-1,1.3389448E0,-2.0959397E-1,6.712453E-1,1.0484228E0,2.8128347E-1,1.5449951E0,2.619994E-1,-5.5731516E-3,4.9893323E-1,1.6235913E-1,1.0601705E-2,-5.9752464E-3,-6.708025E-4,-6.099444E-1,5.69704E-1,9.8559016E-5,1.2222706E0,2.8503528E-2,1.4337919E-2,1.662057E-2,8.4582135E-2,-3.8945284E-1,3.3804253E-1,4.0405563E-1,1.3056215E0,-4.1551725E-3,1.1012883E0,6.498931E-1,-3.264025E-1,1.661303E-2,7.632244E-3,-1.0765389E-3,9.10329E-3,7.785067E-3,-4.4321986E-3,5.8967536E-3,-3.4630788E-3,-6.319637E-3,-4.401724E-3,9.394115E-4,9.574181E-3,1.4969493E-2,1.2352453E-3,-1.1562295E-3,8.521805E-3,5.966174E-3,-3.9015515E-3,-6.1402884E-3,-2.0657314E-3,-3.3696478E-3,6.781228E-3,1.9715421E-3,1.1009453E-2,1.4773975E-2,2.6897015E-3,1.1534849E-2,-1.3914374E-3,8.324178E-3,-4.4181678E-3,2.5971776E-3,-5.772318E-3],"categories":[],"categories_nodes":[],"categories_segments":[],"categories_sizes":[],"default_left":[0,0,0,0,0,0,0,0,0,0,0,0,0,0,0,0,0,0,0,0,0,0,0,0,0,0,0,0,0,0,0,0,0,0,0,0,0,0,0,0,0,0,0,0,0,0,0,0,0,0,0,0,0,0,0,0,0,0,0,0,0,0,0,0,0,0,0,0,0,0,0,0,0,0,0,0,0,0,0,0,0],"id":27,"left_children":[1,3,5,-1,7,9,11,13,15,17,19,21,23,25,27,29,31,33,35,37,39,41,43,45,47,49,51,-1,53,55,-1,-1,-1,57,59,-1,61,63,-1,-1,65,67,69,71,73,-1,75,77,79,-1,-1,-1,-1,-1,-1,-1,-1,-1,-1,-1,-1,-1,-1,-1,-1,-1,-1,-1,-1,-1,-1,-1,-1,-1,-1,-1,-1,-1,-1,-1,-1],"loss_changes":[2.6566806E2,9.592833E1,1.4519E2,0E0,3.6622147E1,4.9820053E1,1.8133732E1,2.4932251E1,4.4416895E0,1.5435165E1,1.1313171E1,1.7776926E1,1.028611E1,2.0054749E1,4.647588E0,7.011796E-1,3.752191E-1,7.112503E0,1.6638212E0,6.351932E0,4.8407593E0,5.3842E0,6.3010902E0,5.0042725E0,6.3059535E0,1.1466858E1,3.6549897E0,0E0,3.2207422E0,9.053272E-1,0E0,0E0,0E0,2.3446045E0,9.08435E-1,0E0,1.3597364E0,3.4997888E0,0E0,0E0,1.1008364E0,1.5409241E0,3.37787E0,4.079126E0,1.6489239E0,0E0,3.849411E0,3.808597E0,1.7578437E0,0E0,0E0,0E0,0E0,0E0,0E0,0E0,0E0,0E0,0E0,0E0,0E0,0E0,0E0,0E0,0E0,0E0,0E0,0E0,0E0,0E0,0E0,0E0,0E0,0E0,0E0,0E0,0E0,0E0,0E0,0E0,0E0],"parents":[2147483647,0,0,1,1,2,2,4,4,5,5,6,6,7,7,8,8,9,9,10,10,11,11,12,12,13,13,14,14,15,15,16,16,17,17,18,18,19,19,20,20,21,21,22,22,23,23,24,24,25,25,26,26,28,28,29,29,33,33,34,34,36,36,37,37,40,40,41,41,42,42,43,43,44,44,46,46,47,47,48,48],"right_children":[2,4,6,-1,8,10,12,14,16,18,20,22,24,26,28,30,32,34,36,38,40,42,44,46,48,50,52,-1,54,56,-1,-1,-1,58,60,-1,62,64,-1,-1,66,68,70,72,74,-1,76,78,80,-1,-1,-1,-1,-1,-1,-1,-1,-1,-1,-1,-1,-1,-1,-1,-1,-1,-1,-1,-1,-1,-1,-1,-1,-1,-1,-1,-1,-1,-1,-1,-1],"split_conditions":[5.1E0,3.3E0,1.3E1,-6.312984E-3,4.46E1,3.41E1,3.1E1,4.5E1,3.24E1,9.43E1,3.84E1,3.29E1,3.93E1,5E0,3.9E0,4.2E0,7.53E1,4.06E1,2.54E1,9.33E1,9.33E1,1.75E1,8.74E1,5.44E1,8.83E1,2.34E1,3.15E1,-5.5731516E-3,4.91E1,8E1,1.0601705E-2,-5.9752464E-3,-6.708025E-4,3.21E1,1.12E1,9.8559016E-5,3.1E1,5.51E1,1.4337919E-2,1.662057E-2,3.87E1,2.44E1,6.38E1,1.82E1,1.036E2,-4.1551725E-3,4.64E1,4.91E1,1.23E1,1.661303E-2,7.632244E-3,-1.0765389E-3,9.10329E-3,7.785067E-3,-4.4321986E-3,5.8967536E-3,-3.4630788E-3,-6.319637E-3,-4.401724E-3,9.394115E-4,9.574181E-3,1.4969493E-2,1.2352453E-3,-1.1562295E-3,8.521805E-3,5.966174E-3,-3.9015515E-3,-6.1402884E-3,-2.0657314E-3,-3.3696478E-3,6.781228E-3,1.9715421E-3,1.1009453E-2,1.4773975E-2,2.6897015E-3,1.1534849E-2,-1.3914374E-3,8.324178E-3,-4.4181678E-3,2.5971776E-3,-5.772318E-3],"split_indices":[6,6,4,0,0,3,3,3,3,1,3,0,3,6,6,6,2,0,3,1,1,4,1,1,1,4,3,0,3,1,0,0,0,0,4,0,3,2,0,0,3,3,1,4,1,0,0,3,2,0,0,0,0,0,0,0,0,0,0,0,0,0,0,0,0,0,0,0,0,0,0,0,0,0,0,0,0,0,0,0,0],"split_type":[0,0,0,0,0,0,0,0,0,0,0,0,0,0,0,0,0,0,0,0,0,0,0,0,0,0,0,0,0,0,0,0,0,0,0,0,0,0,0,0,0,0,0,0,0,0,0,0,0,0,0,0,0,0,0,0,0,0,0,0,0,0,0,0,0,0,0,0,0,0,0,0,0,0,0,0,0,0,0,0,0],"sum_hessian":[1.1466458E3,2.1888652E2,9.277592E2,3.4390617E1,1.8449591E2,7.52192E2,1.7556725E2,1.6857436E2,1.5921544E1,7.106041E2,4.158786E1,9.161406E1,8.395318E1,1.5289833E2,1.5676034E1,3.3491917E0,1.2572352E1,7.050118E2,5.592372E0,3.0297363E1,1.1290498E1,5.2326836E1,3.9287224E1,5.7748463E1,2.6204718E1,1.3905634E2,1.3841989E1,5.7584887E0,9.917545E0,2.2255824E0,1.1236093E0,1.076065E1,1.8117023E0,7.0059937E2,4.412426E0,1.4742948E0,4.1180773E0,2.7650932E1,2.6464295E0,8.719431E0,2.5710669E0,3.9607494E1,1.2719341E1,2.8795803E1,1.0491421E1,1.7736304E0,5.597483E1,1.6267647E1,9.937072E0,1.20068115E2,1.8988222E1,9.346765E0,4.4952235E0,7.7820134E0,2.1355321E0,1.1229602E0,1.102622E0,6.177546E2,8.284476E1,2.5390549E0,1.8733714E0,3.0045462E0,1.1135311E0,2.426473E1,3.3862016E0,1.1134291E0,1.4576379E0,1.6719013E1,2.2888481E1,4.2643733E0,8.4549675E0,2.3192905E1,5.6028967E0,8.635354E0,1.8560663E0,5.378182E1,2.1930108E0,1.4140915E1,2.126732E0,2.9674678E0,6.969604E0],"tree_param":{"num_deleted":"0","num_feature":"8","num_nodes":"81","size_leaf_vector":"1"}},{"base_weights":[2.4583353E-1,-6.889412E-3,1.3770218E0,1.4670998E0,-4.0409037E-1,1.4976988E0,-5.143851E-1,1.5363802E-1,-6.577823E-3,1.5100166E0,-2.8620468E-2,-5.6157383E-4,-6.0316757E-3,5.482054E-1,-5.281721E-3,1.5239547E-2,8.266078E-1,3.5027012E-1,-4.60583E-3,8.040984E-1,6.78861E-2,1.1220205E-2,6.134941E-4,5.8055855E-4,4.839898E-3,1.0788756E-2,5.586638E-4,-3.8110907E-3,4.7478587E-3],"categories":[],"categories_nodes":[],"categories_segments":[],"categories_sizes":[],"default_left":[0,0,0,0,0,0,0,0,0,0,0,0,0,0,0,0,0,0,0,0,0,0,0,0,0,0,0,0,0],"id":28,"left_children":[1,-1,3,5,7,9,11,13,-1,15,17,-1,-1,19,-1,-1,21,23,-1,25,27,-1,-1,-1,-1,-1,-1,-1,-1],"loss_changes":[1.4046068E3,0E0,9.701001E1,3.546643E1,4.3053093E0,1.0643188E1,3.5044932E-1,3.0068488E0,0E0,4.067871E0,1.060677E0,0E0,0E0,7.9211926E-1,0E0,0E0,2.9524117E0,1.08481914E-1,0E0,8.448036E-1,8.179381E-1,0E0,0E0,0E0,0E0,0E0,0E0,0E0,0E0],"parents":[2147483647,0,0,2,2,3,3,4,4,5,5,6,6,7,7,9,9,10,10,13,13,16,16,17,17,19,19,20,20],"right_children":[2,-1,4,6,8,10,12,14,-1,16,18,-1,-1,20,-1,-1,22,24,-1,26,28,-1,-1,-1,-1,-1,-1,-1,-1],"split_conditions":[1E1,-6.889412E-3,9.9E0,2.93E1,1.17E1,8.19E1,2.67E1,2.83E1,-6.577823E-3,3.19E1,2.97E1,-5.6157383E-4,-6.0316757E-3,1.77E1,-5.281721E-3,1.5239547E-2,1.08E1,1.19E1,-4.60583E-3,2.26E1,1.03E1,1.1220205E-2,6.134941E-4,5.8055855E-4,4.839898E-3,1.0788756E-2,5.586638E-4,-3.8110907E-3,4.7478587E-3],"split_indices":[6,0,4,3,4,1,0,0,0,0,0,0,0,2,0,0,2,6,0,3,4,0,0,0,0,0,0,0,0],"split_type":[0,0,0,0,0,0,0,0,0,0,0,0,0,0,0,0,0,0,0,0,0,0,0,0,0,0,0,0,0],"sum_hessian":[1.3264539E3,7.2649475E2,5.9995917E2,5.712453E2,2.8713852E1,5.6279846E2,8.446835E0,9.100743E0,1.961311E1,5.5830347E2,4.495005E0,1.6359313E0,6.8109035E0,5.8888106E0,3.2119322E0,5.459391E2,1.2364385E1,2.4953551E0,1.9996502E0,3.4021847E0,2.4866261E0,8.584365E0,3.7800198E0,1.2336506E0,1.2617044E0,2.1651611E0,1.2370235E0,1.2122964E0,1.2743298E0],"tree_param":{"num_deleted":"0","num_feature":"8","num_nodes":"29","size_leaf_vector":"1"}},{"base_weights":[-3.1274626E-1,-5.137717E-1,1.2382323E0,1.911463E-2,-5.490019E-1,8.696245E-1,1.7571753E0,-6.1582065E-1,-4.7605097E-2,1.8784486E-2,5.649926E-1,5.2240014E-1,1.8004656E-2,-6.182019E-1,6.5650498E-3,-1.7041053E-1,1.2110406E0,-1.0197532E-1,8.854312E-1,6.3596074E-3,1.5420937E-3,-6.193831E-1,1.6918599E-3,-2.7957132E-1,1.0450336E0,-3.6693227E-3,1.4992491E0,-3.0511335E-1,8.3512896E-1,-5.230661E-3,1.0890812E0,-6.2405095E-3,-4.0429216E-3,-3.8241248E-3,1.9431197E-3,6.590802E-4,1.4861384E-2,1.728254E-3,1.6529895E-2,3.4446355E-3,-3.9871964E-3,1.2682111E-2,4.522623E-4,-2.579139E-3,1.2396109E-2],"categories":[],"categories_nodes":[],"categories_segments":[],"categories_sizes":[],"default_left":[0,0,0,0,0,0,0,0,0,0,0,0,0,0,0,0,0,0,0,0,0,0,0,0,0,0,0,0,0,0,0,0,0,0,0,0,0,0,0,0,0,0,0,0,0],"id":29,"left_children":[1,3,5,-1,7,9,11,13,15,-1,17,19,-1,21,-1,23,25,27,29,-1,-1,31,-1,33,35,-1,37,39,41,-1,43,-1,-1,-1,-1,-1,-1,-1,-1,-1,-1,-1,-1,-1,-1],"loss_changes":[3.3596722E2,8.245949E1,2.2133728E1,0E0,3.146164E1,2.1774132E1,1.753128E0,2.9184875E0,1.745878E1,0E0,1.2593374E1,3.2200098E-2,0E0,8.751526E-1,0E0,1.3901155E1,5.118723E0,4.039571E0,1.1934168E1,0E0,0E0,5.782776E-1,0E0,4.699573E0,3.643981E0,0E0,1.4865952E0,1.1754198E0,1.2458894E0,0E0,7.404087E0,0E0,0E0,0E0,0E0,0E0,0E0,0E0,0E0,0E0,0E0,0E0,0E0,0E0,0E0],"parents":[2147483647,0,0,1,1,2,2,4,4,5,5,6,6,7,7,8,8,10,10,11,11,13,13,15,15,16,16,17,17,18,18,21,21,23,23,24,24,26,26,27,27,28,28,30,30],"right_children":[2,4,6,-1,8,10,12,14,16,-1,18,20,-1,22,-1,24,26,28,30,-1,-1,32,-1,34,36,-1,38,40,42,-1,44,-1,-1,-1,-1,-1,-1,-1,-1,-1,-1,-1,-1,-1,-1],"split_conditions":[2.3E0,3.3E0,2.62E0,1.911463E-2,1.94E0,3.4E0,6.52E1,1.463E2,2.51E1,1.8784486E-2,1.42E1,6.18E1,1.8004656E-2,8.24E2,6.5650498E-3,1.024E2,5.11E2,7.78E2,7.14E1,6.3596074E-3,1.5420937E-3,1.89E0,1.6918599E-3,7.29E2,2.03E0,-3.6693227E-3,3.9E0,3.6E0,6.4E0,-5.230661E-3,4.52E2,-6.2405095E-3,-4.0429216E-3,-3.8241248E-3,1.9431197E-3,6.590802E-4,1.4861384E-2,1.728254E-3,1.6529895E-2,3.4446355E-3,-3.9871964E-3,1.2682111E-2,4.522623E-4,-2.579139E-3,1.2396109E-2],"split_indices":[5,6,5,0,5,6,1,2,4,0,4,1,0,7,0,1,7,7,1,0,0,5,0,7,5,0,6,6,6,0,7,0,0,0,0,0,0,0,0,0,0,0,0,0,0],"split_type":[0,0,0,0,0,0,0,0,0,0,0,0,0,0,0,0,0,0,0,0,0,0,0,0,0,0,0,0,0,0,0,0,0,0,0,0,0,0,0,0,0,0,0,0,0],"sum_hessian":[1.0745161E3,9.518179E2,1.226983E2,1.2866045E1,9.3895184E2,7.330511E1,4.9393196E1,8.2833527E2,1.10616554E2,1.580354E1,5.7501564E1,2.115644E0,4.7277554E1,8.27301E2,1.0342191E0,1.0157093E2,9.045618E0,1.8881971E1,3.8619595E1,1.0611086E0,1.0545354E0,8.262749E2,1.0261576E0,9.3907E1,7.663938E0,1.3547993E0,7.690819E0,1.6072344E1,2.8096268E0,4.6803823E0,3.3939213E1,8.068631E2,1.94118E1,7.732016E1,1.6586838E1,2.7373116E0,4.926626E0,1.0194509E0,6.671368E0,1.6868194E0,1.4385525E1,1.4235853E0,1.3860414E0,3.3398283E0,3.0599382E1],"tree_param":{"num_deleted":"0","num_feature":"8","num_nodes":"45","size_leaf_vector":"1"}},{"base_weights":[9.473275E-2,-5.8869654E-1,5.0358045E-1,1.3432293E0,-6.5936977E-1,1.2315074E0,-4.783033E-1,1.495764E0,-3.6318996E-3,-6.6158587E-1,-1.3157309E-4,-6.4799218E-3,1.3771385E0,-9.521196E-2,-6.469686E-1,1.5957355E-2,6.797978E-1,-6.6381954E-3,-9.553015E-4,1.4946847E0,5.958675E-1,5.969125E-1,-4.5304E-1,1.0471079E-3,-6.51266E-1,8.3628576E-4,9.603683E-3,1.5549467E0,4.491262E-1,-4.379134E-1,1.3759367E0,-4.988559E-1,9.818889E-1,8.328585E-1,-5.20843E-1,-4.3859082E-1,-6.5969275E-3,1.5733404E-2,-4.985448E-3,1.1214593E-2,-2.5820679E-3,-5.540025E-3,9.9160215E-3,1.4482664E-2,2.0410956E-3,1.0504102E-3,-5.9199217E-3,1.223166E-2,-3.2991907E-3,1.1284833E-2,9.5872727E-4,-6.296354E-3,-3.0084986E-3,-6.0174316E-3,3.8138153E-3],"categories":[],"categories_nodes":[],"categories_segments":[],"categories_sizes":[],"default_left":[0,0,0,0,0,0,0,0,0,0,0,0,0,0,0,0,0,0,0,0,0,0,0,0,0,0,0,0,0,0,0,0,0,0,0,0,0,0,0,0,0,0,0,0,0,0,0,0,0,0,0,0,0,0,0],"id":30,"left_children":[1,3,5,7,9,11,13,15,-1,17,-1,-1,19,21,23,-1,25,-1,-1,27,29,31,33,-1,35,-1,-1,37,39,41,43,45,47,49,51,53,-1,-1,-1,-1,-1,-1,-1,-1,-1,-1,-1,-1,-1,-1,-1,-1,-1,-1,-1],"loss_changes":[3.4187143E2,6.3423462E1,5.476623E2,4.8363304E0,6.250458E-1,1.2128015E2,2.1040436E1,1.6619873E-1,0E0,4.941864E-1,0E0,0E0,3.66261E1,2.5285635E1,8.0010223E-1,0E0,4.9107444E-1,0E0,0E0,2.1633545E1,4.5027405E1,1.5193064E1,6.288542E0,0E0,1.1467743E-1,0E0,0E0,1.3427063E1,1.0143742E1,4.606903E0,2.3860168E0,6.091573E-1,8.673841E0,7.084248E-1,1.3519669E0,1.77805E0,0E0,0E0,0E0,0E0,0E0,0E0,0E0,0E0,0E0,0E0,0E0,0E0,0E0,0E0,0E0,0E0,0E0,0E0,0E0],"parents":[2147483647,0,0,1,1,2,2,3,3,4,4,5,5,6,6,7,7,9,9,12,12,13,13,14,14,16,16,19,19,20,20,21,21,22,22,24,24,27,27,28,28,29,29,30,30,31,31,32,32,33,33,34,34,35,35],"right_children":[2,4,6,8,10,12,14,16,-1,18,-1,-1,20,22,24,-1,26,-1,-1,28,30,32,34,-1,36,-1,-1,38,40,42,44,46,48,50,52,54,-1,-1,-1,-1,-1,-1,-1,-1,-1,-1,-1,-1,-1,-1,-1,-1,-1,-1,-1],"split_conditions":[1.17E0,9.4E0,1.81E0,6.48E2,6.11E2,5E0,2.02E0,1.37E1,-3.6318996E-3,3.33E1,-1.3157309E-4,-6.4799218E-3,1E1,3.11E1,9E-1,1.5957355E-2,1.65E1,-6.6381954E-3,-9.553015E-4,1.74E1,1.28E0,5.1E0,3.9E2,1.0471079E-3,2.04E0,8.3628576E-4,9.603683E-3,7.38E2,1.6E0,8.6E0,1.75E0,6.5E0,1.7E1,3.35E1,5.6E0,6.3E0,-6.5969275E-3,1.5733404E-2,-4.985448E-3,1.1214593E-2,-2.5820679E-3,-5.540025E-3,9.9160215E-3,1.4482664E-2,2.0410956E-3,1.0504102E-3,-5.9199217E-3,1.223166E-2,-3.2991907E-3,1.1284833E-2,9.5872727E-4,-6.296354E-3,-3.0084986E-3,-6.0174316E-3,3.8138153E-3],"split_indices":[5,6,5,7,7,6,5,4,0,0,0,0,6,0,4,0,4,0,0,4,5,6,7,0,5,0,0,7,5,4,5,2,4,0,6,6,0,0,0,0,0,0,0,0,0,0,0,0,0,0,0,0,0,0,0],"split_type":[0,0,0,0,0,0,0,0,0,0,0,0,0,0,0,0,0,0,0,0,0,0,0,0,0,0,0,0,0,0,0,0,0,0,0,0,0,0,0,0,0,0,0,0,0,0,0,0,0,0,0,0,0,0,0],